{"learner":{"attributes":{"best_iteration":"803","best_score":"0.01359515021081825"},"feature_names":[],"feature_types":[],"gradient_booster":{"model":{"cats":{"enc":[],"feature_segments":[],"sorted_idx":[]},"gbtree_model_param":{"num_parallel_tree":"1","num_trees":"854"},"iteration_indptr":[0,1,2,3,4,5,6,7,8,9,10,11,12,13,14,15,16,17,18,19,20,21,22,23,24,25,26,27,28,29,30,31,32,33,34,35,36,37,38,39,40,41,42,43,44,45,46,47,48,49,50,51,52,53,54,55,56,57,58,59,60,61,62,63,64,65,66,67,68,69,70,71,72,73,74,75,76,77,78,79,80,81,82,83,84,85,86,87,88,89,90,91,92,93,94,95,96,97,98,99,100,101,102,103,104,105,106,107,108,109,110,111,112,113,114,115,116,117,118,119,120,121,122,123,124,125,126,127,128,129,130,131,132,133,134,135,136,137,138,139,140,141,142,143,144,145,146,147,148,149,150,151,152,153,154,155,156,157,158,159,160,161,162,163,164,165,166,167,168,169,170,171,172,173,174,175,176,177,178,179,180,181,182,183,184,185,186,187,188,189,190,191,192,193,194,195,196,197,198,199,200,201,202,203,204,205,206,207,208,209,210,211,212,213,214,215,216,217,218,219,220,221,222,223,224,225,226,227,228,229,230,231,232,233,234,235,236,237,238,239,240,241,242,243,244,245,246,247,248,249,250,251,252,253,254,255,256,257,258,259,260,261,262,263,264,265,266,267,268,269,270,271,272,273,274,275,276,277,278,279,280,281,282,283,284,285,286,287,288,289,290,291,292,293,294,295,296,297,298,299,300,301,302,303,304,305,306,307,308,309,310,311,312,313,314,315,316,317,318,319,320,321,322,323,324,325,326,327,328,329,330,331,332,333,334,335,336,337,338,339,340,341,342,343,344,345,346,347,348,349,350,351,352,353,354,355,356,357,358,359,360,361,362,363,364,365,366,367,368,369,370,371,372,373,374,375,376,377,378,379,380,381,382,383,384,385,386,387,388,389,390,391,392,393,394,395,396,397,398,399,400,401,402,403,404,405,406,407,408,409,410,411,412,413,414,415,416,417,418,419,420,421,422,423,424,425,426,427,428,429,430,431,432,433,434,435,436,437,438,439,440,441,442,443,444,445,446,447,448,449,450,451,452,453,454,455,456,457,458,459,460,461,462,463,464,465,466,467,468,469,470,471,472,473,474,475,476,477,478,479,480,481,482,483,484,485,486,487,488,489,490,491,492,493,494,495,496,497,498,499,500,501,502,503,504,505,506,507,508,509,510,511,512,513,514,515,516,517,518,519,520,521,522,523,524,525,526,527,528,529,530,531,532,533,534,535,536,537,538,539,540,541,542,543,544,545,546,547,548,549,550,551,552,553,554,555,556,557,558,559,560,561,562,563,564,565,566,567,568,569,570,571,572,573,574,575,576,577,578,579,580,581,582,583,584,585,586,587,588,589,590,591,592,593,594,595,596,597,598,599,600,601,602,603,604,605,606,607,608,609,610,611,612,613,614,615,616,617,618,619,620,621,622,623,624,625,626,627,628,629,630,631,632,633,634,635,636,637,638,639,640,641,642,643,644,645,646,647,648,649,650,651,652,653,654,655,656,657,658,659,660,661,662,663,664,665,666,667,668,669,670,671,672,673,674,675,676,677,678,679,680,681,682,683,684,685,686,687,688,689,690,691,692,693,694,695,696,697,698,699,700,701,702,703,704,705,706,707,708,709,710,711,712,713,714,715,716,717,718,719,720,721,722,723,724,725,726,727,728,729,730,731,732,733,734,735,736,737,738,739,740,741,742,743,744,745,746,747,748,749,750,751,752,753,754,755,756,757,758,759,760,761,762,763,764,765,766,767,768,769,770,771,772,773,774,775,776,777,778,779,780,781,782,783,784,785,786,787,788,789,790,791,792,793,794,795,796,797,798,799,800,801,802,803,804,805,806,807,808,809,810,811,812,813,814,815,816,817,818,819,820,821,822,823,824,825,826,827,828,829,830,831,832,833,834,835,836,837,838,839,840,841,842,843,844,845,846,847,848,849,850,851,852,853,854],"tree_info":[0,0,0,0,0,0,0,0,0,0,0,0,0,0,0,0,0,0,0,0,0,0,0,0,0,0,0,0,0,0,0,0,0,0,0,0,0,0,0,0,0,0,0,0,0,0,0,0,0,0,0,0,0,0,0,0,0,0,0,0,0,0,0,0,0,0,0,0,0,0,0,0,0,0,0,0,0,0,0,0,0,0,0,0,0,0,0,0,0,0,0,0,0,0,0,0,0,0,0,0,0,0,0,0,0,0,0,0,0,0,0,0,0,0,0,0,0,0,0,0,0,0,0,0,0,0,0,0,0,0,0,0,0,0,0,0,0,0,0,0,0,0,0,0,0,0,0,0,0,0,0,0,0,0,0,0,0,0,0,0,0,0,0,0,0,0,0,0,0,0,0,0,0,0,0,0,0,0,0,0,0,0,0,0,0,0,0,0,0,0,0,0,0,0,0,0,0,0,0,0,0,0,0,0,0,0,0,0,0,0,0,0,0,0,0,0,0,0,0,0,0,0,0,0,0,0,0,0,0,0,0,0,0,0,0,0,0,0,0,0,0,0,0,0,0,0,0,0,0,0,0,0,0,0,0,0,0,0,0,0,0,0,0,0,0,0,0,0,0,0,0,0,0,0,0,0,0,0,0,0,0,0,0,0,0,0,0,0,0,0,0,0,0,0,0,0,0,0,0,0,0,0,0,0,0,0,0,0,0,0,0,0,0,0,0,0,0,0,0,0,0,0,0,0,0,0,0,0,0,0,0,0,0,0,0,0,0,0,0,0,0,0,0,0,0,0,0,0,0,0,0,0,0,0,0,0,0,0,0,0,0,0,0,0,0,0,0,0,0,0,0,0,0,0,0,0,0,0,0,0,0,0,0,0,0,0,0,0,0,0,0,0,0,0,0,0,0,0,0,0,0,0,0,0,0,0,0,0,0,0,0,0,0,0,0,0,0,0,0,0,0,0,0,0,0,0,0,0,0,0,0,0,0,0,0,0,0,0,0,0,0,0,0,0,0,0,0,0,0,0,0,0,0,0,0,0,0,0,0,0,0,0,0,0,0,0,0,0,0,0,0,0,0,0,0,0,0,0,0,0,0,0,0,0,0,0,0,0,0,0,0,0,0,0,0,0,0,0,0,0,0,0,0,0,0,0,0,0,0,0,0,0,0,0,0,0,0,0,0,0,0,0,0,0,0,0,0,0,0,0,0,0,0,0,0,0,0,0,0,0,0,0,0,0,0,0,0,0,0,0,0,0,0,0,0,0,0,0,0,0,0,0,0,0,0,0,0,0,0,0,0,0,0,0,0,0,0,0,0,0,0,0,0,0,0,0,0,0,0,0,0,0,0,0,0,0,0,0,0,0,0,0,0,0,0,0,0,0,0,0,0,0,0,0,0,0,0,0,0,0,0,0,0,0,0,0,0,0,0,0,0,0,0,0,0,0,0,0,0,0,0,0,0,0,0,0,0,0,0,0,0,0,0,0,0,0,0,0,0,0,0,0,0,0,0,0,0,0,0,0,0,0,0,0,0,0,0,0,0,0,0,0,0,0,0,0,0,0,0,0,0,0,0,0,0,0,0,0,0,0,0,0,0,0,0,0,0,0,0,0,0,0,0,0,0,0,0,0,0,0,0,0,0,0,0,0,0,0,0,0,0,0,0,0,0,0,0,0,0,0,0,0,0,0,0,0,0,0,0,0,0,0,0,0,0,0,0,0,0,0,0,0,0,0,0,0,0,0,0,0,0,0,0,0,0,0,0,0,0,0,0,0,0,0,0,0,0,0,0,0,0,0,0,0,0,0,0,0,0,0,0,0,0,0,0,0,0,0,0,0,0,0,0,0,0,0,0,0,0,0,0,0,0,0,0,0,0,0,0,0,0,0,0,0,0,0,0,0,0,0,0,0,0,0,0,0,0,0,0,0,0,0,0,0],"trees":[{"base_weights":[-1.2976632E-2,1.6136475E0,-1.459628E0,-1.557505E0,1.8659029E0,-1.7299566E0,1.1984653E0,-9.412771E-2,-2.5969109E-2,1.9376142E0,-4.4671983E-2,-1.8580753E0,-9.872316E-2,1.885213E0,-7.0818774E-2,6.27646E-3,1.9716654E0,-1.910112E0,-4.7221968E-1,-9.293992E-1,6.793218E-2,6.720974E-2,9.9015914E-2,4.7999695E-2,1.9883155E0,-1.9476943E0,-1.1737721E0,-9.6747965E-2,7.956898E-2,-1.0303423E-2,-8.5689895E-2,9.9761814E-2,7.819527E-2,-9.8361775E-2,-6.4557925E-2,-9.10813E-2,8.4995525E-3],"categories":[],"categories_nodes":[],"categories_segments":[],"categories_sizes":[],"default_left":[0,0,0,0,0,0,0,0,0,0,0,0,0,0,0,0,0,0,0,0,0,0,0,0,0,0,0,0,0,0,0,0,0,0,0,0,0],"id":0,"left_children":[1,3,5,7,9,11,13,-1,-1,15,-1,17,19,21,-1,-1,23,25,27,29,-1,-1,-1,-1,31,33,35,-1,-1,-1,-1,-1,-1,-1,-1,-1,-1],"loss_changes":[7.3623423E3,1.1810173E3,1.1919761E3,3.5825287E1,2.7176904E2,3.1403564E2,2.7823593E2,0E0,0E0,8.184473E1,0E0,9.962451E1,1.3508652E2,3.613617E0,0E0,0E0,2.0086914E1,3.488379E1,1.5936354E2,3.9933247E1,0E0,0E0,0E0,0E0,6.503906E-1,1.38359375E1,5.9283928E1,0E0,0E0,0E0,0E0,0E0,0E0,0E0,0E0,0E0,0E0],"parents":[2147483647,0,0,1,1,2,2,3,3,4,4,5,5,6,6,9,9,11,11,12,12,13,13,16,16,17,17,18,18,19,19,24,24,25,25,26,26],"right_children":[2,4,6,8,10,12,14,-1,-1,16,-1,18,20,22,-1,-1,24,26,28,30,-1,-1,-1,-1,32,34,36,-1,-1,-1,-1,-1,-1,-1,-1,-1,-1],"split_conditions":[-5.8496084E-2,7.71804E-2,4.8909385E-2,-3.9141864E-2,-4.7785074E-2,5.5208027E-2,5.5826187E-2,-9.412771E-2,-2.5969109E-2,6.259368E-3,-4.4671983E-2,1.269711E-1,8.210664E-2,1.0745456E-1,-7.0818774E-2,6.27646E-3,-2.86526E-2,-2.9505437E-2,1.2264753E-2,5.4568015E-2,6.793218E-2,6.720974E-2,9.9015914E-2,4.7999695E-2,1.6801529E-2,-4.9294896E-2,1.1920945E-2,-9.6747965E-2,7.956898E-2,-1.0303423E-2,-8.5689895E-2,9.9761814E-2,7.819527E-2,-9.8361775E-2,-6.4557925E-2,-9.10813E-2,8.4995525E-3],"split_indices":[18,12,137,274,356,249,54,0,0,137,0,12,135,12,0,0,361,117,137,365,0,0,0,0,219,227,137,0,0,0,0,0,0,0,0,0,0],"split_type":[0,0,0,0,0,0,0,0,0,0,0,0,0,0,0,0,0,0,0,0,0,0,0,0,0,0,0,0,0,0,0,0,0,0,0,0,0],"sum_hessian":[3.1267065E3,1.471748E3,1.6549584E3,1.080652E2,1.3636829E3,1.5025028E3,1.5245563E2,8.1677536E1,2.6387667E1,1.3294307E3,3.425216E1,1.3929594E3,1.095434E2,1.2096505E2,3.1490574E1,2.4607227E1,1.3048235E3,1.342184E3,5.0775333E1,7.000432E1,3.953908E1,2.0347801E1,1.0061725E2,2.2076788E1,1.2827467E3,1.2754413E3,6.674274E1,2.975E1,2.1025335E1,3.7076786E1,3.2927532E1,1.2585228E3,2.422388E1,1.2366377E3,3.8803616E1,4.4792027E1,2.1950706E1],"tree_param":{"num_deleted":"0","num_feature":"384","num_nodes":"37","size_leaf_vector":"1"}},{"base_weights":[3.881173E-4,-1.3997929E0,1.3993112E0,-9.729011E-3,-1.7246423E0,1.7864186E0,-1.1427875E0,9.7405154E-1,-1.6422454E0,3.255147E-2,-1.7705121E0,1.8542316E0,-6.9440305E-2,1.1371989E0,-1.7976979E0,-4.4402707E-1,1.5274355E0,-2.7725866E-2,-9.3638286E-2,-1.8218325E0,-7.334808E-1,6.3455487E-3,1.8806885E0,8.8102005E-2,1.3825125E-2,-5.048678E-2,-9.524341E-2,3.990147E-2,-6.671937E-2,1.794218E0,7.884588E-4,-1.8476002E0,-3.7983358E-2,3.104262E-2,-7.7407405E-2,1.8947473E0,4.694302E-2,9.439208E-2,6.478029E-2,-6.132086E-2,-9.364789E-2,6.796618E-2,9.513681E-2],"categories":[],"categories_nodes":[],"categories_segments":[],"categories_sizes":[],"default_left":[0,0,0,0,0,0,0,0,0,0,0,0,0,0,0,0,0,0,0,0,0,0,0,0,0,0,0,0,0,0,0,0,0,0,0,0,0,0,0,0,0,0,0],"id":1,"left_children":[1,3,5,7,9,11,13,15,17,-1,19,21,-1,23,25,27,29,-1,-1,31,33,-1,35,-1,-1,-1,-1,-1,-1,37,-1,39,-1,-1,-1,41,-1,-1,-1,-1,-1,-1,-1],"loss_changes":[6.166681E3,7.104851E2,1.5517944E3,4.818933E2,1.4013232E2,2.969453E2,3.1372156E2,1.4760704E2,2.725116E1,0E0,6.526929E1,6.0950684E1,0E0,2.4891724E1,1.1802612E1,6.0041634E1,5.437567E1,0E0,0E0,3.1215088E1,6.791907E1,0E0,1.5681641E1,0E0,0E0,0E0,0E0,0E0,0E0,2.9064941E0,0E0,1.6020508E1,0E0,0E0,0E0,2.9672852E0,0E0,0E0,0E0,0E0,0E0,0E0,0E0],"parents":[2147483647,0,0,1,1,2,2,3,3,4,4,5,5,6,6,7,7,8,8,10,10,11,11,13,13,14,14,15,15,16,16,19,19,20,20,22,22,29,29,31,31,35,35],"right_children":[2,4,6,8,10,12,14,16,18,-1,20,22,-1,24,26,28,30,-1,-1,32,34,-1,36,-1,-1,-1,-1,-1,-1,38,-1,40,-1,-1,-1,42,-1,-1,-1,-1,-1,-1,-1],"split_conditions":[3.1543337E-2,-6.362444E-2,1.46274725E-2,4.9960252E-2,-9.619521E-2,4.6871983E-2,4.1392222E-2,-2.9697733E-2,-3.8175985E-2,3.255147E-2,5.7792787E-2,-3.49562E-2,-6.9440305E-2,-7.30572E-2,2.7831202E-2,-3.5864115E-2,-5.556162E-2,-2.7725866E-2,-9.3638286E-2,-2.125689E-3,-5.327556E-3,6.3455487E-3,-2.8848335E-2,8.8102005E-2,1.3825125E-2,-5.048678E-2,-9.524341E-2,3.990147E-2,-6.671937E-2,-8.121792E-3,7.884588E-4,1.4234192E-2,-3.7983358E-2,3.104262E-2,-7.7407405E-2,-7.981693E-2,4.694302E-2,9.439208E-2,6.478029E-2,-6.132086E-2,-9.364789E-2,6.796618E-2,9.513681E-2],"split_indices":[137,291,219,41,356,317,41,361,218,0,249,361,0,356,171,115,356,0,0,274,296,0,168,0,0,0,0,0,0,62,0,203,0,0,0,110,0,0,0,0,0,0,0],"split_type":[0,0,0,0,0,0,0,0,0,0,0,0,0,0,0,0,0,0,0,0,0,0,0,0,0,0,0,0,0,0,0,0,0,0,0,0,0,0,0,0,0,0,0],"sum_hessian":[3.146281E3,1.5724332E3,1.5738479E3,2.9805505E2,1.2743782E3,1.366115E3,2.0773291E2,1.86232E2,1.1182305E2,2.3889858E1,1.2504883E3,1.3379563E3,2.8158592E1,4.619043E1,1.6154248E2,5.233027E1,1.3390173E2,2.0149864E1,9.167319E1,1.1908013E3,5.9687054E1,2.0271442E1,1.3176849E3,2.6155245E1,2.0035185E1,2.0588522E1,1.4095396E2,2.1893059E1,3.043721E1,1.1365646E2,2.0245268E1,1.1618754E3,2.892595E1,2.2507555E1,3.7179497E1,1.2973081E3,2.0376781E1,9.334332E1,2.0313137E1,4.7505333E1,1.11437E3,2.1587944E1,1.2757202E3],"tree_param":{"num_deleted":"0","num_feature":"384","num_nodes":"43","size_leaf_vector":"1"}},{"base_weights":[2.2915455E-2,1.4536548E0,-1.3440491E0,-1.3985664E0,1.7088219E0,-1.5899544E0,1.0974585E0,-3.0668457E-3,-1.6860789E0,1.7758939E0,-3.0703513E-2,-1.7058914E0,-1.8498638E-1,1.7283597E0,-6.797946E-2,-9.0248875E-2,-5.7174027E-2,9.804134E-4,1.8029568E0,-1.7450081E0,-5.7457846E-1,7.334092E-2,-9.644597E-1,9.045309E-2,6.454581E-2,3.882977E-2,1.8183842E0,-1.2948998E0,-1.7832733E0,-8.794689E-2,4.6548195E-2,1.1204821E-3,-1.5320238E0,9.119995E-2,6.9926314E-2,-4.02949E-3,-8.7229155E-2,-6.46176E-2,-8.985302E-2,-5.922218E-2,-9.0493776E-2],"categories":[],"categories_nodes":[],"categories_segments":[],"categories_sizes":[],"default_left":[0,0,0,0,0,0,0,0,0,0,0,0,0,0,0,0,0,0,0,0,0,0,0,0,0,0,0,0,0,0,0,0,0,0,0,0,0,0,0,0,0],"id":2,"left_children":[1,3,5,7,9,11,13,-1,15,17,-1,19,21,23,-1,-1,-1,-1,25,27,29,-1,31,-1,-1,-1,33,35,37,-1,-1,-1,39,-1,-1,-1,-1,-1,-1,-1,-1],"loss_changes":[6.111925E3,1.1136643E3,9.6125E2,4.83145E1,2.1952026E2,2.3625195E2,2.299557E2,0E0,4.620392E0,6.4743164E1,0E0,5.836328E1,1.454021E2,1.8045349E0,0E0,0E0,0E0,0E0,1.9839844E1,2.0015625E1,8.42401E1,0E0,4.2928482E1,0E0,0E0,0E0,5.649414E-1,5.7309937E1,5.744873E0,0E0,0E0,0E0,2.5531616E0,0E0,0E0,0E0,0E0,0E0,0E0,0E0,0E0],"parents":[2147483647,0,0,1,1,2,2,3,3,4,4,5,5,6,6,8,8,9,9,11,11,12,12,13,13,18,18,19,19,20,20,22,22,26,26,27,27,28,28,32,32],"right_children":[2,4,6,8,10,12,14,-1,16,18,-1,20,22,24,-1,-1,-1,-1,26,28,30,-1,32,-1,-1,-1,34,36,38,-1,-1,-1,40,-1,-1,-1,-1,-1,-1,-1,-1],"split_conditions":[-5.7255294E-2,7.71804E-2,4.8909385E-2,-6.1313014E-2,-5.144883E-2,5.4736726E-2,5.5826187E-2,-3.0668457E-3,3.4427997E-2,-1.3579067E-2,-3.0703513E-2,1.2799327E-1,-6.78548E-2,1.6842448E-3,-6.797946E-2,-9.0248875E-2,-5.7174027E-2,9.804134E-4,-3.5277974E-2,-7.04975E-2,7.725998E-3,7.334092E-2,-5.327556E-3,9.045309E-2,6.454581E-2,3.882977E-2,-2.3920463E-2,-3.292958E-2,-6.823733E-2,-8.794689E-2,4.6548195E-2,1.1204821E-3,6.2389478E-2,9.119995E-2,6.9926314E-2,-4.02949E-3,-8.7229155E-2,-6.46176E-2,-8.985302E-2,-5.922218E-2,-9.0493776E-2],"split_indices":[18,12,137,36,356,249,54,0,324,276,0,12,291,219,0,0,0,0,361,291,137,0,296,0,0,0,196,40,26,0,0,0,283,0,0,0,0,0,0,0,0],"split_type":[0,0,0,0,0,0,0,0,0,0,0,0,0,0,0,0,0,0,0,0,0,0,0,0,0,0,0,0,0,0,0,0,0,0,0,0,0,0,0,0,0],"sum_hessian":[3.1230745E3,1.5259103E3,1.5971641E3,1.2493409E2,1.4009762E3,1.4513362E3,1.4582784E2,2.2322912E1,1.02611176E2,1.3618881E3,3.9088158E1,1.3405046E3,1.1083159E2,1.16269615E2,2.9558222E1,8.2259315E1,2.0351866E1,2.0693232E1,1.3411948E3,1.2951794E3,4.5325184E1,3.5250153E1,7.5581436E1,9.551327E1,2.0756348E1,2.0621359E1,1.3205735E3,1.0421012E2,1.1909694E3,2.5274378E1,2.0050808E1,2.7947456E1,4.7633984E1,1.2998461E3,2.0727428E1,2.8480778E1,7.572934E1,3.5121586E1,1.1558478E3,2.349973E1,2.4134254E1],"tree_param":{"num_deleted":"0","num_feature":"384","num_nodes":"41","size_leaf_vector":"1"}},{"base_weights":[-3.7376053E-4,-1.4029553E0,1.0918417E0,-1.5838392E0,8.1426173E-1,1.5643585E0,-9.794824E-1,-1.6829586E0,-1.5003203E-1,1.5964925E0,-7.003786E-2,-9.2599325E-2,1.6890585E0,3.9965528E-1,-1.4129567E0,-1.729804E0,-8.953184E-1,1.0960422E0,-7.293242E-2,5.739659E-2,8.686615E-2,-1.3031256E0,9.17836E-1,1.7244816E0,1.6309358E-2,1.1029835E0,-5.267283E-2,-1.5585954E0,8.419119E-3,-1.745018E0,-5.51089E-2,1.0686839E-2,-1.4058664E0,1.9785784E-2,8.501396E-2,-8.5646816E-2,-3.7020788E-2,-4.974669E-3,8.1951015E-2,1.7421789E0,3.0858804E-2,8.2897455E-2,8.974652E-3,-3.679042E-2,-1.6601306E0,-8.77228E-2,-6.792903E-2,-4.519784E-2,-8.7718345E-2,8.759233E-2,5.4477613E-2,-6.094432E-2,-8.6196214E-2],"categories":[],"categories_nodes":[],"categories_segments":[],"categories_sizes":[],"default_left":[0,0,0,0,0,0,0,0,0,0,0,0,0,0,0,0,0,0,0,0,0,0,0,0,0,0,0,0,0,0,0,0,0,0,0,0,0,0,0,0,0,0,0,0,0,0,0,0,0,0,0,0,0],"id":3,"left_children":[1,3,5,7,9,11,13,15,17,19,-1,21,23,25,27,29,31,33,-1,-1,-1,35,37,39,-1,41,-1,43,-1,45,-1,-1,47,-1,-1,-1,-1,-1,-1,49,-1,-1,-1,-1,51,-1,-1,-1,-1,-1,-1,-1,-1],"loss_changes":[4.7388647E3,5.4443896E2,1.7036753E3,1.7774683E2,1.803735E2,2.928308E2,1.940531E2,4.167285E1,1.3544652E2,2.8348846E0,0E0,1.236197E2,6.303711E1,8.106282E1,5.7026978E1,8.623535E0,3.8708355E1,1.7361279E1,0E0,0E0,0E0,9.327713E0,4.061784E1,2.4082031E1,0E0,2.695221E1,0E0,1.7641235E1,0E0,1.5432129E0,0E0,0E0,6.561844E0,0E0,0E0,0E0,0E0,0E0,0E0,6.0600586E0,0E0,0E0,0E0,0E0,3.5338135E0,0E0,0E0,0E0,0E0,0E0,0E0,0E0,0E0],"parents":[2147483647,0,0,1,1,2,2,3,3,4,4,5,5,6,6,7,7,8,8,9,9,11,11,12,12,13,13,14,14,15,15,16,16,17,17,21,21,22,22,23,23,25,25,27,27,29,29,32,32,39,39,44,44],"right_children":[2,4,6,8,10,12,14,16,18,20,-1,22,24,26,28,30,32,34,-1,-1,-1,36,38,40,-1,42,-1,44,-1,46,-1,-1,48,-1,-1,-1,-1,-1,-1,50,-1,-1,-1,-1,52,-1,-1,-1,-1,-1,-1,-1,-1],"split_conditions":[5.1288683E-2,1.0737077E-2,-5.971234E-2,-1.8774617E-2,8.170429E-3,-2.722145E-2,-6.362444E-2,5.1924385E-2,-6.502415E-2,2.7362619E-2,-7.003786E-2,2.114516E-2,-3.2057587E-2,-4.1083474E-2,5.0830627E-3,5.0437666E-2,3.8700994E-2,-3.15961E-2,-7.293242E-2,5.739659E-2,8.686615E-2,-5.2943237E-2,1.5587927E-2,2.4571829E-2,1.6309358E-2,-5.9550475E-2,-5.267283E-2,4.0605873E-2,8.419119E-3,4.909776E-2,-5.51089E-2,1.0686839E-2,5.045147E-2,1.9785784E-2,8.501396E-2,-8.5646816E-2,-3.7020788E-2,-4.974669E-3,8.1951015E-2,7.5432695E-2,3.0858804E-2,8.2897455E-2,8.974652E-3,-3.679042E-2,4.179694E-2,-8.77228E-2,-6.792903E-2,-4.519784E-2,-8.7718345E-2,8.759233E-2,5.4477613E-2,-6.094432E-2,-8.6196214E-2],"split_indices":[44,361,356,327,219,361,291,249,356,74,0,382,291,239,361,382,175,84,0,0,0,274,367,281,0,96,0,283,0,35,0,0,179,0,0,0,0,0,0,41,0,0,0,0,213,0,0,0,0,0,0,0,0],"split_type":[0,0,0,0,0,0,0,0,0,0,0,0,0,0,0,0,0,0,0,0,0,0,0,0,0,0,0,0,0,0,0,0,0,0,0,0,0,0,0,0,0,0,0,0,0,0,0,0,0,0,0,0,0],"sum_hessian":[3.0914128E3,1.3532877E3,1.738125E3,1.2514761E3,1.0181164E2,1.4154688E3,3.2265622E2,1.1703928E3,8.108331E1,7.544691E1,2.636473E1,9.908813E1,1.3163806E3,7.717979E1,2.4547646E2,1.1035614E3,6.683135E1,4.161738E1,3.9465935E1,2.0214039E1,5.523287E1,4.4948753E1,5.4139378E1,1.282774E3,3.3606567E1,5.2169773E1,2.501001E1,2.2478821E2,2.0688236E1,1.0757056E3,2.7855917E1,2.125053E1,4.5580822E1,2.0042501E1,2.1574879E1,2.4825062E1,2.012369E1,2.2816132E1,3.1323246E1,1.2620304E3,2.0743612E1,3.2090115E1,2.0079657E1,2.5598516E1,1.991897E2,1.0466045E3,2.9101015E1,2.0151922E1,2.54289E1,1.2419485E3,2.0081934E1,2.7700308E1,1.714894E2],"tree_param":{"num_deleted":"0","num_feature":"384","num_nodes":"53","size_leaf_vector":"1"}},{"base_weights":[4.2274892E-3,1.3438833E0,-1.2485512E0,1.5524423E0,-8.4414166E-1,-1.4666605E0,9.547349E-1,-7.7794796E-1,1.631409E0,-1.5356519E0,4.67397E-1,-1.6019571E0,-3.4404737E-1,1.5545032E0,-6.120485E-2,-8.317704E-2,1.4732132E-2,-2.2816153E-2,1.6674955E0,-8.5546225E-2,-4.6625778E-2,-3.5650827E-2,7.506988E-2,-1.6468022E0,-8.589615E-1,1.0609127E0,-1.3454612E0,8.39865E-2,4.6860553E-2,1.6867737E0,4.435426E-2,-3.161795E-2,-1.6648744E0,1.9561745E-2,-1.3284482E0,1.5298843E0,1.1431746E-3,-4.1510444E-2,-7.974821E-2,8.470679E-2,6.307963E-2,-8.37395E-2,-5.333525E-2,-3.5475712E-2,-8.3624005E-2,5.808909E-2,8.920125E-2],"categories":[],"categories_nodes":[],"categories_segments":[],"categories_sizes":[],"default_left":[0,0,0,0,0,0,0,0,0,0,0,0,0,0,0,0,0,0,0,0,0,0,0,0,0,0,0,0,0,0,0,0,0,0,0,0,0,0,0,0,0,0,0,0,0,0,0],"id":4,"left_children":[1,3,5,7,9,11,13,15,17,19,21,23,25,27,-1,-1,-1,-1,29,-1,-1,-1,-1,31,33,35,37,-1,-1,39,-1,-1,41,-1,43,45,-1,-1,-1,-1,-1,-1,-1,-1,-1,-1,-1],"loss_changes":[5.1020728E3,6.716987E2,7.5633594E2,2.4815259E2,1.1725268E2,2.1662256E2,1.8761302E2,4.2900017E1,9.85459E1,7.323181E0,5.6148777E1,4.109424E1,2.1959312E2,7.0739746E0,0E0,0E0,0E0,0E0,1.7702637E1,0E0,0E0,0E0,0E0,2.0985596E1,4.437072E1,3.1651268E1,1.0371246E1,0E0,0E0,1.7575684E0,0E0,0E0,5.2143555E0,0E0,1.0426926E1,2.1201172E0,0E0,0E0,0E0,0E0,0E0,0E0,0E0,0E0,0E0,0E0,0E0],"parents":[2147483647,0,0,1,1,2,2,3,3,4,4,5,5,6,6,7,7,8,8,9,9,10,10,11,11,12,12,13,13,18,18,23,23,24,24,25,25,26,26,29,29,32,32,34,34,35,35],"right_children":[2,4,6,8,10,12,14,16,18,20,22,24,26,28,-1,-1,-1,-1,30,-1,-1,-1,-1,32,34,36,38,-1,-1,40,-1,-1,42,-1,44,46,-1,-1,-1,-1,-1,-1,-1,-1,-1,-1,-1],"split_conditions":[-5.7255294E-2,-5.704743E-2,4.8909385E-2,-6.0195267E-2,-3.3391926E-2,-3.600672E-2,5.5826187E-2,-7.4704915E-2,3.7693686E-3,8.3210375E-3,2.843967E-2,-1.4713861E-2,-6.098968E-2,-6.455709E-2,-6.120485E-2,-8.317704E-2,1.4732132E-2,-2.2816153E-2,9.464669E-2,-8.5546225E-2,-4.6625778E-2,-3.5650827E-2,7.506988E-2,6.621511E-3,-5.5478208E-2,-5.617339E-2,-6.1313014E-2,8.39865E-2,4.6860553E-2,1.8959327E-2,4.435426E-2,-3.161795E-2,6.496827E-2,1.9561745E-2,1.3582794E-2,6.8787694E-2,1.1431746E-3,-4.1510444E-2,-7.974821E-2,8.470679E-2,6.307963E-2,-8.37395E-2,-5.333525E-2,-3.5475712E-2,-8.3624005E-2,5.808909E-2,8.920125E-2],"split_indices":[18,356,137,274,231,117,54,110,137,382,137,274,291,356,0,0,0,0,283,0,0,0,0,203,291,103,36,0,0,281,0,0,377,0,219,65,0,0,0,0,0,0,0,0,0,0,0],"split_type":[0,0,0,0,0,0,0,0,0,0,0,0,0,0,0,0,0,0,0,0,0,0,0,0,0,0,0,0,0,0,0,0,0,0,0,0,0,0,0,0,0,0,0,0,0,0,0],"sum_hessian":[3.0380383E3,1.468079E3,1.5699594E3,1.3405869E3,1.274921E2,1.4288481E3,1.4111122E2,4.3647675E1,1.2969392E3,8.336627E1,4.4125835E1,1.2747849E3,1.5406326E2,1.1087668E2,3.0234543E1,2.3606133E1,2.0041544E1,2.1838802E1,1.2751005E3,6.317173E1,2.019454E1,2.0749111E1,2.3376724E1,1.2010751E3,7.3709854E1,6.408879E1,8.997447E1,9.074633E1,2.0130346E1,1.243228E3,3.1872402E1,2.1652496E1,1.1794225E3,2.0168858E1,5.3540997E1,4.3818558E1,2.027023E1,3.0766201E1,5.9208275E1,1.219134E3,2.409395E1,1.1584203E3,2.1002302E1,2.0222271E1,3.3318726E1,2.017218E1,2.364638E1],"tree_param":{"num_deleted":"0","num_feature":"384","num_nodes":"47","size_leaf_vector":"1"}},{"base_weights":[-1.0541351E-2,1.2997359E0,-1.1994971E0,-1.2444736E0,1.5380282E0,-1.4375334E0,8.181221E-1,5.2793446E-4,-1.5351048E0,-4.8000887E-2,1.5815275E0,-1.5264883E0,-1.00887634E-1,-1.0342134E0,1.5807623E0,-8.259325E-2,-5.0871637E-2,1.615934E0,8.7581837E-4,-1.5848798E0,-9.257622E-1,-1.0771315E0,8.326161E-1,-8.1463985E-2,-9.24635E-3,8.2498364E-2,5.960778E-2,3.3965077E-2,1.6317029E0,-1.6302303E0,-1.2855923E0,-1.3731962E0,2.7652359E-2,-2.4145247E-2,-7.7848606E-2,9.822132E-3,7.106492E-2,8.189179E-2,6.35953E-2,-5.8911312E-2,-8.196877E-2,-7.528135E-2,-1.958288E-2,-7.97848E-2,-3.5442363E-2],"categories":[],"categories_nodes":[],"categories_segments":[],"categories_sizes":[],"default_left":[0,0,0,0,0,0,0,0,0,0,0,0,0,0,0,0,0,0,0,0,0,0,0,0,0,0,0,0,0,0,0,0,0,0,0,0,0,0,0,0,0,0,0,0,0],"id":5,"left_children":[1,3,5,7,9,11,13,-1,15,-1,17,19,21,23,25,-1,-1,27,-1,29,31,33,35,-1,-1,-1,-1,-1,37,39,41,43,-1,-1,-1,-1,-1,-1,-1,-1,-1,-1,-1,-1,-1],"loss_changes":[4.6954995E3,8.712268E2,7.600864E2,4.500821E1,1.440332E2,1.6794727E2,2.3810403E2,0E0,4.37352E0,0E0,6.936035E1,4.5028076E1,8.2268234E1,2.4676346E1,1.2324829E0,0E0,0E0,1.7526123E1,0E0,1.4282471E1,8.004832E1,1.18172E1,1.702573E1,0E0,0E0,0E0,0E0,0E0,6.5356445E-1,2.3845215E0,3.1573181E1,1.251004E1,0E0,0E0,0E0,0E0,0E0,0E0,0E0,0E0,0E0,0E0,0E0,0E0,0E0],"parents":[2147483647,0,0,1,1,2,2,3,3,4,4,5,5,6,6,8,8,10,10,11,11,12,12,13,13,14,14,17,17,19,19,20,20,21,21,22,22,28,28,29,29,30,30,31,31],"right_children":[2,4,6,8,10,12,14,-1,16,-1,18,20,22,24,26,-1,-1,28,-1,30,32,34,36,-1,-1,-1,-1,-1,38,40,42,44,-1,-1,-1,-1,-1,-1,-1,-1,-1,-1,-1,-1,-1],"split_conditions":[-5.7621814E-2,7.829358E-2,4.6425957E-2,-6.1313014E-2,-2.2061141E-3,5.6947134E-2,8.816254E-2,5.2793446E-4,-1.0281437E-2,-4.8000887E-2,2.2354478E-2,6.815531E-2,7.999723E-2,-5.161396E-2,1.9812481E-3,-8.259325E-2,-5.0871637E-2,-3.0410577E-2,8.7581837E-4,-7.427048E-2,1.07885666E-1,-5.021302E-2,8.375007E-2,-8.1463985E-2,-9.24635E-3,8.2498364E-2,5.960778E-2,3.3965077E-2,-2.9485436E-2,4.8263937E-2,8.938453E-2,-2.2855202E-2,2.7652359E-2,-2.4145247E-2,-7.7848606E-2,9.822132E-3,7.106492E-2,8.189179E-2,6.35953E-2,-5.8911312E-2,-8.196877E-2,-7.528135E-2,-1.958288E-2,-7.97848E-2,-3.5442363E-2],"split_indices":[18,12,137,36,137,249,12,0,361,0,219,44,12,231,219,0,0,361,0,227,12,36,135,0,0,0,0,0,320,350,135,336,0,0,0,0,0,0,0,0,0,0,0,0,0],"split_type":[0,0,0,0,0,0,0,0,0,0,0,0,0,0,0,0,0,0,0,0,0,0,0,0,0,0,0,0,0,0,0,0,0,0,0,0,0,0,0,0,0,0,0,0,0],"sum_hessian":[3.0120664E3,1.4328807E3,1.5791857E3,1.22349724E2,1.310531E3,1.4127935E3,1.663922E2,2.3186628E1,9.91631E1,2.2069464E1,1.2884615E3,1.3245046E3,8.828888E1,4.8423313E1,1.1796888E2,7.912552E1,2.0037582E1,1.2606945E3,2.7767084E1,1.2056731E3,1.18831505E2,4.308128E1,4.52076E1,2.7933117E1,2.0490196E1,9.738096E1,2.0587925E1,2.1603086E1,1.2390914E3,1.0431578E3,1.6251524E2,9.128377E1,2.7547737E1,2.014296E1,2.293832E1,2.236838E1,2.283922E1,1.2148318E3,2.4259596E1,2.3261623E1,1.01989624E3,1.2986562E2,3.2649635E1,6.733158E1,2.3952183E1],"tree_param":{"num_deleted":"0","num_feature":"384","num_nodes":"45","size_leaf_vector":"1"}},{"base_weights":[9.958224E-3,1.2856807E0,-1.1317866E0,-1.223188E0,1.4869087E0,-1.3542461E0,9.5374584E-1,-1.4709303E0,-9.275418E-3,-3.115837E-2,1.5371193E0,-1.4743798E0,-3.571571E-2,-6.6077046E-2,1.474074E0,-8.0701426E-2,-4.82947E-2,1.5661321E0,-5.5697425E-3,-1.5295366E0,-6.7543143E-1,9.7945535E-1,-9.93893E-1,8.0101706E-2,4.0619478E-2,1.5820991E0,3.4796495E-2,-1.5674118E0,-1.096432E0,-1.2272586E0,4.303485E-2,7.368124E-2,2.6251434E-3,-1.4080975E-3,-7.3125325E-2,5.8936864E-2,7.943099E-2,-6.04922E-2,-7.898902E-2,1.2704137E-2,-7.26221E-2,-2.5886938E-2,-7.741042E-2],"categories":[],"categories_nodes":[],"categories_segments":[],"categories_sizes":[],"default_left":[0,0,0,0,0,0,0,0,0,0,0,0,0,0,0,0,0,0,0,0,0,0,0,0,0,0,0,0,0,0,0,0,0,0,0,0,0,0,0,0,0,0,0],"id":6,"left_children":[1,3,5,7,9,11,13,15,-1,-1,17,19,21,-1,23,-1,-1,25,-1,27,29,31,33,-1,-1,35,-1,37,39,41,-1,-1,-1,-1,-1,-1,-1,-1,-1,-1,-1,-1,-1],"loss_changes":[4.298817E3,7.055344E2,7.23876E2,2.6475327E1,1.3772119E2,2.2293774E2,1.803686E2,4.5008087E0,0E0,0E0,6.0492188E1,5.582202E1,1.1631641E2,0E0,9.123779E0,0E0,0E0,1.6119629E1,0E0,1.8065918E1,7.320148E1,2.6527664E1,2.7790005E1,0E0,0E0,1.326416E0,0E0,2.9836426E0,4.8601685E1,1.3551163E1,0E0,0E0,0E0,0E0,0E0,0E0,0E0,0E0,0E0,0E0,0E0,0E0,0E0],"parents":[2147483647,0,0,1,1,2,2,3,3,4,4,5,5,6,6,7,7,10,10,11,11,12,12,14,14,17,17,19,19,20,20,21,21,22,22,25,25,27,27,28,28,29,29],"right_children":[2,4,6,8,10,12,14,16,-1,-1,18,20,22,-1,24,-1,-1,26,-1,28,30,32,34,-1,-1,36,-1,38,40,42,-1,-1,-1,-1,-1,-1,-1,-1,-1,-1,-1,-1,-1],"split_conditions":[-5.8496084E-2,7.829358E-2,4.8909385E-2,3.562437E-2,3.7693686E-3,5.431649E-2,7.668183E-2,3.542923E-2,-9.275418E-3,-3.115837E-2,8.075872E-2,-2.0157652E-2,-5.7010673E-2,-6.6077046E-2,-4.3802872E-2,-8.0701426E-2,-4.82947E-2,-5.380339E-2,-5.5697425E-3,6.815531E-2,-2.4688212E-2,-6.279602E-2,-4.757788E-3,8.0101706E-2,4.0619478E-2,1.5421063E-2,3.4796495E-2,4.5625456E-2,-6.69871E-2,-4.7686968E-2,4.303485E-2,7.368124E-2,2.6251434E-3,-1.4080975E-3,-7.3125325E-2,5.8936864E-2,7.943099E-2,-6.04922E-2,-7.898902E-2,1.2704137E-2,-7.26221E-2,-2.5886938E-2,-7.741042E-2],"split_indices":[18,12,137,137,137,249,12,249,0,0,346,327,291,0,239,0,0,356,0,44,245,258,296,0,0,137,0,146,291,291,0,0,0,0,0,0,0,0,0,0,0,0,0],"split_type":[0,0,0,0,0,0,0,0,0,0,0,0,0,0,0,0,0,0,0,0,0,0,0,0,0,0,0,0,0,0,0,0,0,0,0,0,0,0,0,0,0,0,0],"sum_hessian":[2.949371E3,1.392898E3,1.5564733E3,1.0304729E2,1.2898507E3,1.4067668E3,1.4970633E2,8.284969E1,2.0197588E1,2.9714172E1,1.2601365E3,1.2891884E3,1.17578476E2,2.7577194E1,1.2212914E2,6.2846695E1,2.0003002E1,1.2383915E3,2.1745005E1,1.2050792E3,8.410924E1,5.708052E1,6.0497955E1,1.0114755E2,2.0981586E1,1.2152749E3,2.3116581E1,1.105761E3,9.931818E1,6.2027878E1,2.2081356E1,3.6847126E1,2.0233397E1,2.011158E1,4.0386375E1,2.2225069E1,1.1930499E3,4.0274426E1,1.0654866E3,2.0779184E1,7.8538994E1,2.0133072E1,4.1894806E1],"tree_param":{"num_deleted":"0","num_feature":"384","num_nodes":"43","size_leaf_vector":"1"}},{"base_weights":[1.0275184E-2,-1.1526372E0,1.1053042E0,4.9714732E-1,-1.3687904E0,1.3730408E0,-9.7041017E-1,1.2694507E0,-1.1401304E0,-1.4583573E0,-5.273271E-1,-9.838527E-1,1.4707962E0,5.2514106E-2,-1.331166E0,1.4935606E0,1.140202E-2,-2.4382738E-2,-7.617873E-2,-1.4954004E0,-4.4187695E-1,4.8655456E-1,-1.1420448E0,-5.627573E-3,-7.588618E-2,-3.8022384E-2,1.5086982E0,-1.7275626E-2,-7.574745E-2,7.9419464E-2,5.509698E-2,-1.5100586E0,-3.4316935E-2,2.2153288E-2,-6.507984E-2,6.8898775E-2,-1.9311948E-2,-2.3161659E-2,-1.4296801E0,-1.1093895E-2,1.5373337E0,-7.667155E-2,-5.503669E-2,-7.967051E-2,-5.5801462E-2,5.1589407E-2,7.733747E-2],"categories":[],"categories_nodes":[],"categories_segments":[],"categories_sizes":[],"default_left":[0,0,0,0,0,0,0,0,0,0,0,0,0,0,0,0,0,0,0,0,0,0,0,0,0,0,0,0,0,0,0,0,0,0,0,0,0,0,0,0,0,0,0,0,0,0,0],"id":7,"left_children":[1,3,5,7,9,11,13,15,17,19,21,23,25,-1,27,29,-1,-1,-1,31,33,35,37,-1,-1,-1,39,-1,-1,-1,-1,41,-1,-1,-1,-1,-1,-1,43,-1,45,-1,-1,-1,-1,-1,-1],"loss_changes":[3.71146E3,5.0473242E2,8.3555164E2,2.0941815E2,9.343994E1,3.0787817E2,1.2684262E2,2.5852737E1,1.2577614E1,4.1856445E1,7.647925E1,2.4746044E1,1.0917822E2,0E0,2.60065E1,1.6727905E0,0E0,0E0,0E0,1.187915E1,3.1862877E1,3.6851974E1,1.4203438E1,0E0,0E0,0E0,6.260498E1,0E0,0E0,0E0,0E0,8.5373535E0,0E0,0E0,0E0,0E0,0E0,0E0,9.433365E-1,0E0,4.2875977E0,0E0,0E0,0E0,0E0,0E0,0E0],"parents":[2147483647,0,0,1,1,2,2,3,3,4,4,5,5,6,6,7,7,8,8,9,9,10,10,11,11,12,12,14,14,15,15,19,19,20,20,21,21,22,22,26,26,31,31,38,38,40,40],"right_children":[2,4,6,8,10,12,14,16,18,20,22,24,26,-1,28,30,-1,-1,-1,32,34,36,38,-1,-1,-1,40,-1,-1,-1,-1,42,-1,-1,-1,-1,-1,-1,44,-1,46,-1,-1,-1,-1,-1,-1],"split_conditions":[1.001654E-1,-8.0415405E-2,-5.6480233E-2,4.9176946E-2,5.063456E-2,1.5946943E-2,-5.3855244E-2,4.330239E-2,-2.7134916E-2,-1.2036907E-2,-5.8336634E-2,-3.852501E-2,-4.9505632E-2,5.2514106E-2,9.931638E-3,2.5510406E-2,1.140202E-2,-2.4382738E-2,-7.617873E-2,1.1255144E-1,-4.6258733E-2,-6.243053E-2,-5.891816E-2,-5.627573E-3,-7.588618E-2,-3.8022384E-2,3.4344994E-2,-1.7275626E-2,-7.574745E-2,7.9419464E-2,5.509698E-2,-1.7996839E-3,-3.4316935E-2,2.2153288E-2,-6.507984E-2,6.8898775E-2,-1.9311948E-2,-2.3161659E-2,-6.1994992E-2,-1.1093895E-2,-4.8163924E-2,-7.667155E-2,-5.503669E-2,-7.967051E-2,-5.5801462E-2,5.1589407E-2,7.733747E-2],"split_indices":[12,356,356,41,249,314,239,177,36,327,291,291,163,0,11,292,0,0,0,135,36,103,36,0,0,0,44,0,0,0,0,344,0,0,0,0,0,0,29,0,104,0,0,0,0,0,0],"split_type":[0,0,0,0,0,0,0,0,0,0,0,0,0,0,0,0,0,0,0,0,0,0,0,0,0,0,0,0,0,0,0,0,0,0,0,0,0,0,0,0,0,0,0,0,0,0,0],"sum_hessian":[2.9125537E3,1.4124695E3,1.5000842E3,1.6347206E2,1.2489973E3,1.3290012E3,1.7108302E2,1.1122971E2,5.224236E1,1.1281787E3,1.2081863E2,5.2565945E1,1.2764353E3,2.5627127E1,1.4545589E2,9.117486E1,2.0054855E1,2.0178324E1,3.2064034E1,1.0880562E3,4.012259E1,4.5681896E1,7.513673E1,2.0431557E1,3.2134388E1,2.1002115E1,1.2554331E3,2.3311743E1,1.2214415E2,7.094097E1,2.0233887E1,1.067843E3,2.0213121E1,2.0010082E1,2.0112509E1,2.2313435E1,2.3368464E1,2.3139235E1,5.199749E1,2.0325462E1,1.2351077E3,1.0075651E3,6.027792E1,3.1482822E1,2.051467E1,2.4605156E1,1.2105026E3],"tree_param":{"num_deleted":"0","num_feature":"384","num_nodes":"47","size_leaf_vector":"1"}},{"base_weights":[-9.849659E-3,1.231614E0,-1.0560195E0,-1.1090444E0,1.4092968E0,-1.2794285E0,9.3623155E-1,-1.7595347E-3,-1.4077024E0,1.4662449E0,-2.5237305E-2,-1.3967327E0,-1.4200915E-1,-6.1825402E-2,1.3976376E0,-5.2838396E-2,-7.6093346E-2,1.491928E0,5.690657E-3,-1.43736E0,-3.2696992E-1,-1.0289309E0,7.078963E-1,7.537822E-2,3.792053E-2,1.5050436E0,4.459428E-2,-1.4684153E0,-7.978241E-1,-7.175075E-2,5.6290735E-2,-1.20674735E-2,-1.395846E0,1.2496625E0,-2.283723E-2,7.554715E-2,5.9352946E-2,-7.423864E-2,-3.231873E-2,-7.4654944E-2,1.7079407E-2,-5.6965556E-2,-7.837495E-2,7.901065E-2,3.9871868E-2],"categories":[],"categories_nodes":[],"categories_segments":[],"categories_sizes":[],"default_left":[0,0,0,0,0,0,0,0,0,0,0,0,0,0,0,0,0,0,0,0,0,0,0,0,0,0,0,0,0,0,0,0,0,0,0,0,0,0,0,0,0,0,0,0,0],"id":8,"left_children":[1,3,5,7,9,11,13,-1,15,17,-1,19,21,-1,23,-1,-1,25,-1,27,29,31,33,-1,-1,35,-1,37,39,-1,-1,-1,41,43,-1,-1,-1,-1,-1,-1,-1,-1,-1,-1,-1],"loss_changes":[3.699085E3,5.432626E2,6.8913513E2,2.9602997E1,1.3274438E2,1.8528784E2,1.5854721E2,0E0,1.2889099E0,4.068872E1,0E0,5.4296875E1,9.9538795E1,0E0,7.956024E0,0E0,0E0,7.741455E0,0E0,2.2933838E1,7.791781E1,1.8317139E1,4.3180244E1,0E0,0E0,3.2299805E-1,0E0,1.4588623E1,4.6772636E1,0E0,0E0,0E0,1.4408112E-1,5.669655E0,0E0,0E0,0E0,0E0,0E0,0E0,0E0,0E0,0E0,0E0,0E0],"parents":[2147483647,0,0,1,1,2,2,3,3,4,4,5,5,6,6,8,8,9,9,11,11,12,12,14,14,17,17,19,19,20,20,21,21,22,22,25,25,27,27,28,28,32,32,33,33],"right_children":[2,4,6,8,10,12,14,-1,16,18,-1,20,22,-1,24,-1,-1,26,-1,28,30,32,34,-1,-1,36,-1,38,40,-1,-1,-1,42,44,-1,-1,-1,-1,-1,-1,-1,-1,-1,-1,-1],"split_conditions":[-5.9735496E-2,7.71804E-2,4.8909385E-2,-6.012137E-2,-5.144883E-2,5.2762747E-2,4.136262E-2,-1.7595347E-3,-4.6782468E-2,-2.2674745E-3,-2.5237305E-2,1.269711E-1,7.999723E-2,-6.1825402E-2,2.7055103E-2,-5.2838396E-2,-7.6093346E-2,-3.4090724E-2,5.690657E-3,-2.9023722E-2,9.731334E-3,-6.012137E-2,4.7505695E-2,7.537822E-2,3.792053E-2,-2.978738E-2,4.459428E-2,-4.41767E-3,8.0335766E-2,-7.175075E-2,5.6290735E-2,-1.20674735E-2,-5.5995848E-2,-4.3021675E-2,-2.283723E-2,7.554715E-2,5.9352946E-2,-7.423864E-2,-3.231873E-2,-7.4654944E-2,1.7079407E-2,-5.6965556E-2,-7.837495E-2,7.901065E-2,3.9871868E-2],"split_indices":[18,12,137,36,356,249,44,0,96,40,0,12,12,0,171,0,0,291,0,117,137,36,177,0,0,320,0,274,135,0,0,0,318,288,0,0,0,0,0,0,0,0,0,0,0],"split_type":[0,0,0,0,0,0,0,0,0,0,0,0,0,0,0,0,0,0,0,0,0,0,0,0,0,0,0,0,0,0,0,0,0,0,0,0,0,0,0,0,0,0,0,0,0],"sum_hessian":[2.8461174E3,1.3014921E3,1.5446254E3,9.145757E1,1.2100345E3,1.3891998E3,1.554256E2,2.0144371E1,7.13132E1,1.1752999E3,3.4734528E1,1.2591166E3,1.3008313E2,2.6930634E1,1.2849496E2,2.002234E1,5.1290863E1,1.1532954E3,2.2004534E1,1.2127166E3,4.640003E1,6.3552284E1,6.653085E1,1.0848122E2,2.0013742E1,1.12715E3,2.614545E1,1.1553193E3,5.7397305E1,2.6330143E1,2.0069885E1,2.0724669E1,4.2827618E1,4.5358185E1,2.1172667E1,1.1029362E3,2.421381E1,1.1319882E3,2.3331152E1,3.545319E1,2.1944117E1,2.0230497E1,2.2597118E1,2.4763319E1,2.0594866E1],"tree_param":{"num_deleted":"0","num_feature":"384","num_nodes":"45","size_leaf_vector":"1"}},{"base_weights":[4.5699673E-3,1.179307E0,-1.0420153E0,-9.679994E-1,1.3750782E0,-1.2642736E0,8.628176E-1,2.727518E-2,-1.3190479E0,-2.8043404E-2,1.4242802E0,-1.3739426E0,-1.8147784E-1,1.3672918E0,-5.4672565E-2,-3.8565673E-2,-7.330388E-2,3.6911317E-3,1.4495283E0,-1.4918252E-2,-1.3979205E0,5.491948E-2,-8.108998E-1,4.1729525E-2,7.3475964E-2,3.4265596E-2,1.4647621E0,-1.43641E0,-9.45457E-1,1.4706515E-3,-1.3306086E0,5.7906598E-2,7.3502295E-2,-7.296665E-2,-5.894625E-2,-6.5977216E-2,1.6768713E-2,-7.818421E-2,-4.9130403E-2],"categories":[],"categories_nodes":[],"categories_segments":[],"categories_sizes":[],"default_left":[0,0,0,0,0,0,0,0,0,0,0,0,0,0,0,0,0,0,0,0,0,0,0,0,0,0,0,0,0,0,0,0,0,0,0,0,0,0,0],"id":9,"left_children":[1,3,5,7,9,11,13,-1,15,-1,17,19,21,23,-1,-1,-1,-1,25,-1,27,-1,29,-1,-1,-1,31,33,35,-1,37,-1,-1,-1,-1,-1,-1,-1,-1],"loss_changes":[3.4111145E3,5.5085474E2,6.222831E2,5.906183E1,1.14948975E2,1.5583008E2,1.5338565E2,0E0,6.070984E0,0E0,3.975122E1,3.0358887E1,9.919682E1,5.460861E0,0E0,0E0,0E0,0E0,1.2354492E1,0E0,1.8966064E1,0E0,3.6015026E1,0E0,0E0,0E0,1.19140625E-1,4.616211E0,4.568251E1,0E0,2.5936737E0,0E0,0E0,0E0,0E0,0E0,0E0,0E0,0E0],"parents":[2147483647,0,0,1,1,2,2,3,3,4,4,5,5,6,6,8,8,10,10,11,11,12,12,13,13,18,18,20,20,22,22,26,26,27,27,28,28,30,30],"right_children":[2,4,6,8,10,12,14,-1,16,-1,18,20,22,24,-1,-1,-1,-1,26,-1,28,-1,30,-1,-1,-1,32,34,36,-1,38,-1,-1,-1,-1,-1,-1,-1,-1],"split_conditions":[-5.8496084E-2,8.119066E-2,4.8080266E-2,4.7305897E-3,3.7693686E-3,5.3518254E-2,5.5457406E-2,2.727518E-2,7.892887E-3,-2.8043404E-2,1.2511162E-2,-6.1258823E-2,-6.758025E-2,3.30313E-2,-5.4672565E-2,-3.8565673E-2,-7.330388E-2,3.6911317E-3,3.862469E-2,-1.4918252E-2,6.815531E-2,5.491948E-2,-6.279602E-2,4.1729525E-2,7.3475964E-2,3.4265596E-2,1.5012401E-2,2.5059804E-2,2.0074364E-2,1.4706515E-3,3.9524864E-2,5.7906598E-2,7.3502295E-2,-7.296665E-2,-5.894625E-2,-6.5977216E-2,1.6768713E-2,-7.818421E-2,-4.9130403E-2],"split_indices":[18,12,137,11,137,249,54,0,106,0,35,89,291,35,0,0,0,0,44,0,44,0,258,0,0,0,137,382,137,0,75,0,0,0,0,0,0,0,0],"split_type":[0,0,0,0,0,0,0,0,0,0,0,0,0,0,0,0,0,0,0,0,0,0,0,0,0,0,0,0,0,0,0,0,0,0,0,0,0,0,0],"sum_hessian":[2.772477E3,1.3062043E3,1.4662727E3,1.08807755E2,1.1973966E3,1.3133639E3,1.5290877E2,2.0381496E1,8.842626E1,2.9419712E1,1.1679768E3,1.1923319E3,1.21032005E2,1.2180045E2,3.1108307E1,2.0035038E1,6.839122E1,2.1507822E1,1.146469E3,2.6294088E1,1.1660378E3,3.965414E1,8.137786E1,2.10861E1,1.00714355E2,2.3305609E1,1.1231635E3,1.0726191E3,9.3418594E1,3.1457653E1,4.9920208E1,2.2756323E1,1.1004071E3,9.806477E2,9.1971504E1,7.227833E1,2.114027E1,2.7804586E1,2.2115623E1],"tree_param":{"num_deleted":"0","num_feature":"384","num_nodes":"39","size_leaf_vector":"1"}},{"base_weights":[1.2351957E-3,1.1146034E0,-1.0521476E0,-9.0004885E-1,1.3390718E0,-1.2505025E0,4.0800878E-1,2.9495878E-2,-1.2401166E0,1.3929002E0,-1.9346861E-2,-1.3502833E0,-3.267769E-1,-8.340193E-1,1.2137864E0,-2.6908075E-2,-1.3968198E0,2.058528E-2,1.4254314E0,-1.4031194E0,-7.607885E-1,9.115728E-1,-1.036635E0,1.0296749E-2,-6.605615E-2,7.293346E-2,1.12270545E-2,-5.4965343E-2,-7.351149E-2,4.4670608E-2,7.17272E-2,-1.4263633E0,-3.4013536E-2,2.494318E-2,-1.1592438E0,7.238203E-2,1.2306453E-2,-1.667515E-2,-1.2986845E0,-5.17231E-2,-7.176048E-2,-2.419052E-2,-7.151648E-2,-4.77167E-2,-7.376637E-2],"categories":[],"categories_nodes":[],"categories_segments":[],"categories_sizes":[],"default_left":[0,0,0,0,0,0,0,0,0,0,0,0,0,0,0,0,0,0,0,0,0,0,0,0,0,0,0,0,0,0,0,0,0,0,0,0,0,0,0,0,0,0,0,0,0],"id":10,"left_children":[1,3,5,7,9,11,13,-1,15,17,-1,19,21,23,25,-1,27,-1,29,31,33,35,37,-1,-1,-1,-1,-1,-1,-1,-1,39,-1,-1,41,-1,-1,-1,43,-1,-1,-1,-1,-1,-1],"loss_changes":[3.1681428E3,5.951033E2,4.0253406E2,6.7742355E1,1.1035913E2,1.1221814E2,1.6790938E2,0E0,1.1127975E1,3.6008545E1,0E0,3.328174E1,1.0685357E2,3.381255E1,2.4273453E1,0E0,2.9837036E-1,0E0,4.0964355E0,1.6015259E1,4.720576E1,1.5493217E1,1.3763664E1,0E0,0E0,0E0,0E0,0E0,0E0,0E0,0E0,1.9074707E0,0E0,0E0,1.2285339E1,0E0,0E0,0E0,1.9852753E0,0E0,0E0,0E0,0E0,0E0,0E0],"parents":[2147483647,0,0,1,1,2,2,3,3,4,4,5,5,6,6,8,8,9,9,11,11,12,12,13,13,14,14,16,16,18,18,19,19,20,20,21,21,22,22,31,31,34,34,38,38],"right_children":[2,4,6,8,10,12,14,-1,16,18,-1,20,22,24,26,-1,28,-1,30,32,34,36,38,-1,-1,-1,-1,-1,-1,-1,-1,40,-1,-1,42,-1,-1,-1,44,-1,-1,-1,-1,-1,-1],"split_conditions":[-5.7255294E-2,8.160094E-2,-2.0791393E-2,4.362928E-3,-5.144883E-2,-3.6292534E-2,8.777314E-2,2.9495878E-2,-5.722229E-2,4.1717414E-2,-1.9346861E-2,3.2216113E-2,-6.392688E-2,-5.5478208E-2,-4.3588456E-2,-2.6908075E-2,-7.9193085E-2,2.058528E-2,1.655603E-2,-5.282468E-2,-4.7929928E-2,-6.560213E-2,-5.7673603E-3,1.0296749E-2,-6.605615E-2,7.293346E-2,1.12270545E-2,-5.4965343E-2,-7.351149E-2,4.4670608E-2,7.17272E-2,-4.014593E-3,-3.4013536E-2,2.494318E-2,5.2948456E-2,7.238203E-2,1.2306453E-2,-1.667515E-2,2.4673037E-2,-5.17231E-2,-7.176048E-2,-2.419052E-2,-7.151648E-2,-4.77167E-2,-7.376637E-2],"split_indices":[18,12,327,11,356,117,12,0,36,44,0,382,291,291,239,0,95,0,328,227,168,103,72,0,0,0,0,0,0,0,0,11,0,0,353,0,0,0,259,0,0,0,0,0,0],"split_type":[0,0,0,0,0,0,0,0,0,0,0,0,0,0,0,0,0,0,0,0,0,0,0,0,0,0,0,0,0,0,0,0,0,0,0,0,0,0,0,0,0,0,0,0,0],"sum_hessian":[2.699343E3,1.3122782E3,1.3870647E3,1.3125214E2,1.1810261E3,1.2213008E3,1.6576392E2,2.4253515E1,1.0699861E2,1.1454949E3,3.5531174E1,1.1018204E3,1.19480385E2,6.521156E1,1.0055235E2,2.0336264E1,8.666235E1,3.7197865E1,1.1082971E3,1.0099213E3,9.1899086E1,4.3430897E1,7.604949E1,2.098542E1,4.4226143E1,8.021981E1,2.033254E1,2.0313086E1,6.6349266E1,2.0331606E1,1.0879655E3,9.7751514E2,3.240615E1,2.2023466E1,6.987562E1,2.3402704E1,2.002819E1,2.1264683E1,5.478481E1,2.4181538E1,9.533336E2,2.0810123E1,4.9065495E1,2.07456E1,3.4039207E1],"tree_param":{"num_deleted":"0","num_feature":"384","num_nodes":"45","size_leaf_vector":"1"}},{"base_weights":[1.099261E-2,1.1219102E0,-9.763889E-1,-1.0788623E0,1.302661E0,-1.1972471E0,5.93199E-1,-4.2823725E-3,-1.350787E0,-4.9758982E-2,1.3492564E0,-1.307734E0,-1.509073E-1,-9.531612E-1,1.3587177E0,-7.1517795E-2,-5.404852E-2,-7.131527E-5,1.3847579E0,-1.3428454E0,-5.170924E-1,4.8301667E-2,-7.2772014E-1,-7.21928E-2,-5.263068E-3,4.6473574E-2,7.196756E-2,2.5228469E-2,1.400885E0,-1.3672779E0,-8.12674E-1,-6.326488E-2,2.6227657E-2,6.756659E-3,-1.2273861E0,7.0536E-2,4.4115413E-2,-6.9405794E-2,-4.934441E-2,-5.506755E-3,-6.469836E-2,-7.399437E-2,-4.1717783E-2],"categories":[],"categories_nodes":[],"categories_segments":[],"categories_sizes":[],"default_left":[0,0,0,0,0,0,0,0,0,0,0,0,0,0,0,0,0,0,0,0,0,0,0,0,0,0,0,0,0,0,0,0,0,0,0,0,0,0,0,0,0,0,0],"id":11,"left_children":[1,3,5,7,9,11,13,-1,15,-1,17,19,21,23,25,-1,-1,-1,27,29,31,-1,33,-1,-1,-1,-1,-1,35,37,39,-1,-1,-1,41,-1,-1,-1,-1,-1,-1,-1,-1],"loss_changes":[2.8905647E3,4.946781E2,4.8436084E2,2.5450485E1,1.2408313E2,1.4123755E2,2.0581482E2,0E0,4.7836304E-2,0E0,5.3899536E1,3.0021118E1,7.671164E1,2.389465E1,2.6762085E0,0E0,0E0,0E0,1.48396E1,1.2603394E1,3.859739E1,0E0,3.3954185E1,0E0,0E0,0E0,0E0,0E0,4.237793E0,6.6411133E0,1.6462227E1,0E0,0E0,0E0,3.700409E0,0E0,0E0,0E0,0E0,0E0,0E0,0E0,0E0],"parents":[2147483647,0,0,1,1,2,2,3,3,4,4,5,5,6,6,8,8,10,10,11,11,12,12,13,13,14,14,18,18,19,19,20,20,22,22,28,28,29,29,30,30,34,34],"right_children":[2,4,6,8,10,12,14,-1,16,-1,18,20,22,24,26,-1,-1,-1,28,30,32,-1,34,-1,-1,-1,-1,-1,36,38,40,-1,-1,-1,42,-1,-1,-1,-1,-1,-1,-1,-1],"split_conditions":[-5.8496084E-2,7.668183E-2,4.4072703E-2,-5.891816E-2,-2.2061141E-3,5.2762747E-2,8.941648E-2,-4.2823725E-3,6.108706E-2,-4.9758982E-2,-5.7466615E-2,1.06102236E-1,-6.5213114E-2,2.1304602E-2,-1.0281437E-2,-7.1517795E-2,-5.404852E-2,-7.131527E-5,-3.3337675E-2,5.741922E-2,-3.798539E-2,4.8301667E-2,-6.366266E-2,-7.21928E-2,-5.263068E-3,4.6473574E-2,7.196756E-2,2.5228469E-2,-3.9399877E-2,-1.3695241E-2,5.6340635E-2,-6.326488E-2,2.6227657E-2,6.756659E-3,2.6855422E-2,7.0536E-2,4.4115413E-2,-6.9405794E-2,-4.934441E-2,-5.506755E-3,-6.469836E-2,-7.399437E-2,-4.1717783E-2],"split_indices":[18,12,137,36,137,249,12,0,12,0,274,135,291,35,361,0,0,0,361,328,231,0,258,0,0,0,0,0,109,274,365,0,0,0,330,0,0,0,0,0,0,0,0],"split_type":[0,0,0,0,0,0,0,0,0,0,0,0,0,0,0,0,0,0,0,0,0,0,0,0,0,0,0,0,0,0,0,0,0,0,0,0,0,0,0,0,0,0,0],"sum_hessian":[2.6332153E3,1.239029E3,1.3941863E3,9.36616E1,1.1453674E3,1.222416E3,1.7177019E2,2.0413933E1,7.3247665E1,2.2359459E1,1.1230079E3,1.105439E3,1.1697715E2,5.6796074E1,1.1497411E2,5.324462E1,2.0003048E1,2.8785872E1,1.094222E3,1.0577664E3,4.7672565E1,3.960712E1,7.7370026E1,3.5530865E1,2.126521E1,2.0163315E1,9.48108E1,2.026901E1,1.0739531E3,1.0096584E3,4.8107975E1,2.7619211E1,2.0053354E1,2.8640842E1,4.8729183E1,1.052276E3,2.167709E1,9.5470953E2,5.494883E1,2.0058136E1,2.8049837E1,2.7984985E1,2.0744196E1],"tree_param":{"num_deleted":"0","num_feature":"384","num_nodes":"43","size_leaf_vector":"1"}},{"base_weights":[2.3814593E-3,-9.157303E-1,1.09982E0,-1.251104E0,1.5114057E-1,-1.0922029E0,1.303973E0,-1.3206334E0,-1.16751485E-1,1.1569859E0,-7.761011E-1,4.064786E-3,-6.9356486E-2,-2.8346604E-2,1.348503E0,-1.3504814E0,-2.6534064E-2,-4.6051003E-2,3.31584E-2,-5.0698062E-3,1.3403487E0,-1.2346435E0,7.8001946E-2,1.3783439E0,-4.5959404E-4,-2.9905742E-2,-1.3671601E0,4.286798E-2,7.075373E-2,-1.3515737E0,-3.246027E-2,-4.941634E-2,4.245996E-2,4.4046175E-2,6.939256E-2,-3.7769627E-2,-6.898656E-2,-7.215642E-2,-4.8172582E-2],"categories":[],"categories_nodes":[],"categories_segments":[],"categories_sizes":[],"default_left":[0,0,0,0,0,0,0,0,0,0,0,0,0,0,0,0,0,0,0,0,0,0,0,0,0,0,0,0,0,0,0,0,0,0,0,0,0,0,0],"id":12,"left_children":[1,3,5,7,9,11,13,15,17,19,21,-1,-1,-1,23,25,-1,-1,-1,-1,27,29,31,33,-1,-1,35,-1,-1,37,-1,-1,-1,-1,-1,-1,-1,-1,-1],"loss_changes":[2.6015674E3,5.0321143E2,5.2775867E2,8.421704E1,3.1532983E2,3.498236E1,9.044031E1,2.304712E1,4.0052628E1,3.754219E1,6.903312E1,0E0,0E0,0E0,4.262085E1,1.1360718E1,0E0,0E0,0E0,0E0,3.896164E0,6.966919E0,5.2177788E1,3.643921E0,0E0,0E0,6.253784E0,0E0,0E0,1.9708099E0,0E0,0E0,0E0,0E0,0E0,0E0,0E0,0E0,0E0],"parents":[2147483647,0,0,1,1,2,2,3,3,4,4,5,5,6,6,7,7,8,8,9,9,10,10,14,14,15,15,20,20,21,21,22,22,23,23,26,26,29,29],"right_children":[2,4,6,8,10,12,14,16,18,20,22,-1,-1,-1,24,26,-1,-1,-1,-1,28,30,32,34,-1,-1,36,-1,-1,38,-1,-1,-1,-1,-1,-1,-1,-1,-1],"split_conditions":[3.562437E-2,6.243176E-2,3.4662757E-2,5.6073572E-2,-6.8675786E-2,6.120204E-2,7.0308454E-2,-2.7558671E-2,6.662412E-2,9.135097E-2,-4.2172924E-2,4.064786E-3,-6.9356486E-2,-2.8346604E-2,-5.120131E-2,-5.2798018E-2,-2.6534064E-2,-4.6051003E-2,3.31584E-2,-5.0698062E-3,-5.6212146E-2,4.58198E-2,8.082591E-2,-4.939883E-2,-4.5959404E-4,-2.9905742E-2,-5.6666616E-2,4.286798E-2,7.075373E-2,4.0300746E-2,-3.246027E-2,-4.941634E-2,4.245996E-2,4.4046175E-2,6.939256E-2,-3.7769627E-2,-6.898656E-2,-7.215642E-2,-4.8172582E-2],"split_indices":[137,44,44,249,356,41,12,117,135,12,117,0,0,0,356,316,0,0,0,0,313,0,12,104,0,0,89,0,0,145,0,0,0,0,0,0,0,0,0],"split_type":[0,0,0,0,0,0,0,0,0,0,0,0,0,0,0,0,0,0,0,0,0,0,0,0,0,0,0,0,0,0,0,0,0,0,0,0,0,0,0],"sum_hessian":[2.5800188E3,1.4048738E3,1.1751451E3,1.0687399E3,3.3613394E2,9.975115E1,1.0753939E3,1.0068608E3,6.187909E1,1.6111415E2,1.750198E2,2.018006E1,7.957109E1,2.4728018E1,1.0506659E3,9.6951843E2,3.7342335E1,3.0374933E1,3.1504156E1,2.0547531E1,1.4056662E2,1.13590775E2,6.142903E1,1.0280549E3,2.2610973E1,2.1825834E1,9.476926E2,2.0505186E1,1.20061424E2,9.358939E1,2.0001383E1,2.5663185E1,3.5765846E1,2.1037468E1,1.00701746E3,2.0311811E1,9.273808E2,7.352682E1,2.006257E1],"tree_param":{"num_deleted":"0","num_feature":"384","num_nodes":"39","size_leaf_vector":"1"}},{"base_weights":[2.009865E-3,-9.6444803E-1,1.0124804E0,-1.2422783E0,-3.5619822E-3,-8.4501785E-1,1.282931E0,-1.2913185E0,-4.0292802E-1,1.0573163E0,-7.864051E-1,3.493121E-2,-6.697473E-2,1.3455323E0,9.8261265E-3,-1.3407165E0,-7.193344E-1,-5.3365495E-2,3.787339E-2,-2.348935E-3,1.2770127E0,-1.2225865E0,3.7188124E-2,3.7188314E-2,1.3570223E0,5.0118774E-2,-6.0590256E-2,-1.3521068E0,-4.462202E-2,-7.7929685E-4,-1.2505436E0,6.902801E-2,4.0487505E-2,-1.3645984E0,-2.8826563E-2,-5.2175373E-2,3.734061E-2,5.1817E-2,6.8129286E-2,-5.334E-2,-6.803772E-2,-5.0555408E-2,-7.068514E-2,-5.497662E-2,-7.1578644E-2],"categories":[],"categories_nodes":[],"categories_segments":[],"categories_sizes":[],"default_left":[0,0,0,0,0,0,0,0,0,0,0,0,0,0,0,0,0,0,0,0,0,0,0,0,0,0,0,0,0,0,0,0,0,0,0,0,0,0,0,0,0,0,0,0,0],"id":13,"left_children":[1,3,5,7,9,11,13,15,17,19,21,-1,-1,23,25,27,29,-1,-1,-1,31,33,35,-1,37,-1,-1,39,-1,-1,41,-1,-1,43,-1,-1,-1,-1,-1,-1,-1,-1,-1,-1,-1],"loss_changes":[2.4549233E3,3.4301282E2,6.184452E2,4.0505615E1,2.4100279E2,1.2061409E2,8.551306E1,2.562976E1,4.434561E1,2.9953323E1,6.0028046E1,0E0,0E0,6.062866E0,6.342016E1,3.2113037E0,2.8759338E1,0E0,0E0,0E0,3.8562012E0,9.231171E0,4.5859016E1,0E0,3.7634277E-1,0E0,0E0,6.2524414E-1,0E0,0E0,2.8388977E-1,0E0,0E0,2.0446777E-3,0E0,0E0,0E0,0E0,0E0,0E0,0E0,0E0,0E0,0E0,0E0],"parents":[2147483647,0,0,1,1,2,2,3,3,4,4,5,5,6,6,7,7,8,8,9,9,10,10,13,13,14,14,15,15,16,16,20,20,21,21,22,22,24,24,27,27,30,30,33,33],"right_children":[2,4,6,8,10,12,14,16,18,20,22,-1,-1,24,26,28,30,-1,-1,-1,32,34,36,-1,38,-1,-1,40,-1,-1,42,-1,-1,44,-1,-1,-1,-1,-1,-1,-1,-1,-1,-1,-1],"split_conditions":[3.236936E-2,6.243176E-2,8.322328E-2,-2.7558671E-2,-6.9234446E-2,5.2943006E-2,1.5568218E-2,3.188921E-2,8.757852E-3,9.336083E-2,-4.2172924E-2,3.493121E-2,-6.697473E-2,-5.287271E-2,4.337085E-2,-9.621776E-3,-3.9941642E-2,-5.3365495E-2,3.787339E-2,-2.348935E-3,-2.9014107E-2,4.4980235E-2,3.982734E-2,3.7188314E-2,-4.5980092E-2,5.0118774E-2,-6.0590256E-2,1.5742583E-2,-4.462202E-2,-7.7929685E-4,5.7605743E-2,6.902801E-2,4.0487505E-2,4.451422E-2,-2.8826563E-2,-5.2175373E-2,3.734061E-2,5.1817E-2,6.8129286E-2,-5.334E-2,-6.803772E-2,-5.0555408E-2,-7.068514E-2,-5.497662E-2,-7.1578644E-2],"split_indices":[137,44,12,117,356,41,219,382,137,12,117,0,0,231,41,274,338,0,0,0,316,145,315,0,327,0,0,203,0,0,167,0,0,363,0,0,0,0,0,0,0,0,0,0,0],"split_type":[0,0,0,0,0,0,0,0,0,0,0,0,0,0,0,0,0,0,0,0,0,0,0,0,0,0,0,0,0,0,0,0,0,0,0,0,0,0,0,0,0,0,0,0,0],"sum_hessian":[2.5118037E3,1.2838855E3,1.2279183E3,9.956971E2,2.8818835E2,1.5579166E2,1.0721267E3,9.402247E2,5.5472385E1,1.22215744E2,1.6597261E2,3.7697117E1,1.18094536E2,1.02182446E3,5.0302242E1,8.6424255E2,7.598216E1,3.53265E1,2.0145885E1,2.041031E1,1.01805435E2,1.08189926E2,5.7782684E1,2.0376575E1,1.0014479E3,2.7852312E1,2.2449932E1,8.408607E2,2.3381813E1,3.3126003E1,4.2856155E1,8.1737495E1,2.0067944E1,8.778202E1,2.0407906E1,2.271667E1,3.5066013E1,2.0270987E1,9.811769E2,2.8394812E1,8.1246594E2,2.028503E1,2.2571125E1,2.1219307E1,6.656271E1],"tree_param":{"num_deleted":"0","num_feature":"384","num_nodes":"45","size_leaf_vector":"1"}},{"base_weights":[-5.424599E-3,9.9588734E-1,-9.9598277E-1,-8.725258E-1,1.2189268E0,-1.1118373E0,9.223085E-1,-1.179458E0,2.4847327E-2,-3.4849446E-2,1.2776467E0,-2.629939E-1,-1.2314864E0,-2.90159E-3,6.616606E-2,-2.9661361E-2,-6.5816484E-2,-8.78314E-3,1.307916E0,-1.1085664E0,5.5302066E-1,-1.2760599E0,-6.301268E-1,1.3296521E0,1.3412978E-2,-6.6626355E-2,-2.5721705E-2,-2.8153358E-2,1.0318608E0,-1.3097482E0,-8.1131816E-1,1.1447635E-2,-6.2713884E-2,6.6841066E-2,4.9639706E-2,1.4494409E-2,7.485514E-2,-6.609519E-2,-3.761023E-2,-2.2524914E-3,-5.718981E-2],"categories":[],"categories_nodes":[],"categories_segments":[],"categories_sizes":[],"default_left":[0,0,0,0,0,0,0,0,0,0,0,0,0,0,0,0,0,0,0,0,0,0,0,0,0,0,0,0,0,0,0,0,0,0,0,0,0,0,0,0,0],"id":14,"left_children":[1,3,5,7,9,11,13,15,-1,-1,17,19,21,-1,-1,-1,-1,-1,23,25,27,29,31,33,-1,-1,-1,-1,35,37,39,-1,-1,-1,-1,-1,-1,-1,-1,-1,-1],"loss_changes":[2.41863E3,5.0641626E2,2.7345557E2,5.518988E1,1.2281555E2,1.17130005E2,2.7738567E1,7.7578583E0,0E0,0E0,4.650293E1,1.0007126E2,2.6357544E1,0E0,0E0,0E0,0E0,0E0,2.2931519E1,8.778152E0,4.0139595E1,1.3692261E1,3.883992E1,1.1099854E0,0E0,0E0,0E0,0E0,1.7568218E1,4.949707E0,1.6845806E1,0E0,0E0,0E0,0E0,0E0,0E0,0E0,0E0,0E0,0E0],"parents":[2147483647,0,0,1,1,2,2,3,3,4,4,5,5,6,6,7,7,10,10,11,11,12,12,18,18,19,19,20,20,21,21,22,22,23,23,28,28,29,29,30,30],"right_children":[2,4,6,8,10,12,14,16,-1,-1,18,20,22,-1,-1,-1,-1,-1,24,26,28,30,32,34,-1,-1,-1,-1,36,38,40,-1,-1,-1,-1,-1,-1,-1,-1,-1,-1],"split_conditions":[-5.522629E-2,8.160094E-2,5.5344757E-2,4.1265327E-2,4.149933E-3,-6.845677E-2,3.579371E-2,2.8464716E-2,2.4847327E-2,-3.4849446E-2,1.2511162E-2,-7.976966E-2,-2.042438E-2,-2.90159E-3,6.616606E-2,-2.9661361E-2,-6.5816484E-2,-8.78314E-3,-2.6618157E-2,-4.337645E-2,4.56856E-2,5.3092036E-2,-2.8000452E-2,6.892545E-2,1.3412978E-2,-6.6626355E-2,-2.5721705E-2,-2.8153358E-2,-6.524652E-2,6.2018476E-2,-6.637257E-2,1.1447635E-2,-6.2713884E-2,6.6841066E-2,4.9639706E-2,1.4494409E-2,7.485514E-2,-6.609519E-2,-3.761023E-2,-2.2524914E-3,-5.718981E-2],"split_indices":[18,12,137,137,137,291,35,41,0,0,35,227,327,0,0,0,0,0,168,231,134,249,40,41,0,0,0,0,68,328,334,0,0,0,0,0,0,0,0,0,0],"split_type":[0,0,0,0,0,0,0,0,0,0,0,0,0,0,0,0,0,0,0,0,0,0,0,0,0,0,0,0,0,0,0,0,0,0,0,0,0,0,0,0,0],"sum_hessian":[2.4364849E3,1.2116626E3,1.2248221E3,1.2890521E2,1.0827574E3,1.155459E3,6.9363144E1,1.0541735E2,2.3487856E1,3.1874735E1,1.0508827E3,1.4314244E2,1.0123166E3,2.0384708E1,4.8978436E1,2.0963474E1,8.445388E1,2.1343124E1,1.0295396E3,7.012197E1,7.302047E1,9.41416E2,7.090058E1,1.00818256E3,2.135702E1,5.002284E1,2.0099133E1,2.1869896E1,5.1150574E1,8.7609143E2,6.5324554E1,3.0101772E1,4.0798813E1,9.8426624E2,2.3916323E1,2.033816E1,3.0812412E1,8.5605676E2,2.0034662E1,2.0110655E1,4.5213898E1],"tree_param":{"num_deleted":"0","num_feature":"384","num_nodes":"41","size_leaf_vector":"1"}},{"base_weights":[6.2544816E-3,1.0203131E0,-9.1199714E-1,-6.195998E-1,1.1956748E0,-1.1121157E0,5.607364E-1,-1.2117168E0,2.651155E-2,-2.3146918E-1,1.2823733E0,-1.1978856E0,-5.959677E-3,-1.0438473E0,1.1625651E0,-7.209631E-2,-3.0098116E-2,5.679651E-2,-4.8660647E-2,1.0444952E-2,1.306536E0,-5.504109E-1,-1.2589449E0,4.3209042E-2,-4.2347305E-2,-6.785288E-2,-3.393805E-2,1.8813426E-2,6.695884E-2,4.4695254E-2,1.3152275E0,1.9054322E-2,-8.992163E-1,-1.2857827E0,-7.2417307E-1,5.2002978E-2,6.603844E-2,-1.1292889E-2,-6.408917E-2,-4.5268398E-2,-6.493948E-2,-2.9797242E-3,-6.155763E-2],"categories":[],"categories_nodes":[],"categories_segments":[],"categories_sizes":[],"default_left":[0,0,0,0,0,0,0,0,0,0,0,0,0,0,0,0,0,0,0,0,0,0,0,0,0,0,0,0,0,0,0,0,0,0,0,0,0,0,0,0,0,0,0],"id":15,"left_children":[1,3,5,7,9,11,13,15,-1,17,19,21,23,25,27,-1,-1,-1,-1,-1,29,31,33,-1,-1,-1,-1,-1,-1,-1,35,-1,37,39,41,-1,-1,-1,-1,-1,-1,-1,-1],"loss_changes":[2.2005244E3,3.236947E2,3.6613477E2,7.495254E1,1.258678E2,1.0361194E2,1.4512518E2,9.287811E0,0E0,6.091552E1,2.454712E1,3.9377808E1,5.8978577E1,3.7872581E0,1.4611969E1,0E0,0E0,0E0,0E0,0E0,2.1798096E0,2.9299768E1,1.2350952E1,0E0,0E0,0E0,0E0,0E0,0E0,0E0,2.0263672E-2,0E0,1.6490902E1,3.1781006E0,1.5598509E1,0E0,0E0,0E0,0E0,0E0,0E0,0E0,0E0],"parents":[2147483647,0,0,1,1,2,2,3,3,4,4,5,5,6,6,7,7,9,9,10,10,11,11,12,12,13,13,14,14,20,20,21,21,22,22,30,30,32,32,33,33,34,34],"right_children":[2,4,6,8,10,12,14,16,-1,18,20,22,24,26,28,-1,-1,-1,-1,-1,30,32,34,-1,-1,-1,-1,-1,-1,-1,36,-1,38,40,42,-1,-1,-1,-1,-1,-1,-1,-1],"split_conditions":[-5.7621814E-2,-2.556219E-2,4.4072703E-2,-2.7411107E-2,1.5421063E-2,5.6947134E-2,-4.4614483E-2,5.498945E-2,2.651155E-2,-6.2087804E-2,-5.3250384E-2,-4.5458566E-2,-5.612073E-2,-7.375362E-2,3.1193493E-2,-7.209631E-2,-3.0098116E-2,5.679651E-2,-4.8660647E-2,1.0444952E-2,1.463975E-2,-5.3994123E-2,5.741922E-2,4.3209042E-2,-4.2347305E-2,-6.785288E-2,-3.393805E-2,1.8813426E-2,6.695884E-2,4.4695254E-2,-6.569082E-4,1.9054322E-2,4.028025E-2,3.831309E-2,4.5988187E-2,5.2002978E-2,6.603844E-2,-1.1292889E-2,-6.408917E-2,-4.5268398E-2,-6.493948E-2,-2.9797242E-3,-6.155763E-2],"split_indices":[18,361,137,231,137,249,231,44,0,291,231,89,291,376,35,0,0,0,0,0,35,218,328,0,0,0,0,0,0,0,102,0,346,370,54,0,0,0,0,0,0,0,0],"split_type":[0,0,0,0,0,0,0,0,0,0,0,0,0,0,0,0,0,0,0,0,0,0,0,0,0,0,0,0,0,0,0,0,0,0,0,0,0,0,0,0,0,0,0],"sum_hessian":[2.3612056E3,1.1220138E3,1.2391918E3,1.0814556E2,1.01386816E3,1.0911663E3,1.480255E2,7.134956E1,3.6796E1,5.796912E1,9.5589905E2,1.01257E3,7.859627E1,4.0175617E1,1.07849884E2,5.0804024E1,2.0545538E1,2.0199696E1,3.776943E1,2.1254883E1,9.3464417E2,8.812308E1,9.2444696E2,3.8615017E1,3.998125E1,2.0161684E1,2.0013935E1,2.0355433E1,8.749445E1,2.1423145E1,9.1322107E2,2.3983013E1,6.414006E1,8.7893286E2,4.5514053E1,2.175187E1,8.914692E2,2.3814465E1,4.0325596E1,3.1392572E1,8.475403E2,2.0179338E1,2.5334717E1],"tree_param":{"num_deleted":"0","num_feature":"384","num_nodes":"43","size_leaf_vector":"1"}},{"base_weights":[4.26191E-3,9.423314E-1,-9.4194156E-1,-7.615655E-1,1.1905967E0,-1.1508242E0,-6.5813996E-2,4.175281E-2,-1.0782979E0,1.2490935E0,-2.0420229E-2,-1.2425765E0,-3.979912E-1,-6.961089E-1,1.0234308E0,-9.998434E-3,-1.2469528E0,5.624525E-3,1.2749641E0,-1.2642195E0,-1.7976156E-2,-9.223167E-1,2.9562984E-2,1.839309E-2,-9.7223616E-1,7.979899E-3,1.3121111E0,-4.6042725E-2,-6.708924E-2,3.0891284E-2,6.465627E-2,-1.2811157E0,-3.3667896E-2,-1.695283E-2,-6.378454E-2,-6.655574E-2,-5.552405E-1,5.605625E-2,7.334305E-2,-5.125317E-2,-6.466616E-2,-5.290231E-2,1.344493E-2],"categories":[],"categories_nodes":[],"categories_segments":[],"categories_sizes":[],"default_left":[0,0,0,0,0,0,0,0,0,0,0,0,0,0,0,0,0,0,0,0,0,0,0,0,0,0,0,0,0,0,0,0,0,0,0,0,0,0,0,0,0,0,0],"id":16,"left_children":[1,3,5,7,9,11,13,-1,15,17,-1,19,21,23,25,-1,27,-1,29,31,-1,33,-1,-1,35,-1,37,-1,-1,-1,-1,39,-1,-1,-1,-1,41,-1,-1,-1,-1,-1,-1],"loss_changes":[2.0373612E3,4.8848895E2,2.0905133E2,7.533697E1,9.464795E1,6.3238037E1,1.5247586E2,0E0,1.8010422E1,2.8413208E1,0E0,1.5254639E1,5.329918E1,4.1671173E1,2.0097359E1,0E0,1.9563599E0,0E0,1.0532227E1,7.1430664E0,0E0,1.3348774E1,0E0,0E0,1.6010017E1,0E0,1.5525055E-1,0E0,0E0,0E0,0E0,1.107544E0,0E0,0E0,0E0,0E0,2.2447533E1,0E0,0E0,0E0,0E0,0E0,0E0],"parents":[2147483647,0,0,1,1,2,2,3,3,4,4,5,5,6,6,8,8,9,9,11,11,12,12,13,13,14,14,16,16,18,18,19,19,21,21,24,24,26,26,31,31,36,36],"right_children":[2,4,6,8,10,12,14,-1,16,18,-1,20,22,24,26,-1,28,-1,30,32,-1,34,-1,-1,36,-1,38,-1,-1,-1,-1,40,-1,-1,-1,-1,42,-1,-1,-1,-1,-1,-1],"split_conditions":[-5.489503E-2,8.415368E-2,2.8044924E-2,-8.244137E-2,-5.144883E-2,-6.577863E-2,1.0389043E-1,4.175281E-2,6.3036373E-3,-9.9514965E-3,-2.0420229E-2,1.1758668E-2,8.838933E-2,1.5051357E-2,4.8824705E-2,-9.998434E-3,-6.0573053E-2,5.624525E-3,3.9910268E-2,5.7467446E-4,-1.7976156E-2,3.0674106E-2,2.9562984E-2,1.839309E-2,-5.6512825E-2,7.979899E-3,2.319801E-2,-4.6042725E-2,-6.708924E-2,3.0891284E-2,6.465627E-2,2.8464716E-2,-3.3667896E-2,-1.695283E-2,-6.378454E-2,-6.655574E-2,6.449563E-2,5.605625E-2,7.334305E-2,-5.125317E-2,-6.466616E-2,-5.290231E-2,1.344493E-2],"split_indices":[18,12,382,356,356,227,12,0,11,276,0,361,135,106,325,0,155,0,44,344,0,259,0,0,313,0,352,0,0,0,0,41,0,0,0,0,100,0,0,0,0,0,0],"split_type":[0,0,0,0,0,0,0,0,0,0,0,0,0,0,0,0,0,0,0,0,0,0,0,0,0,0,0,0,0,0,0,0,0,0,0,0,0,0,0,0,0,0,0],"sum_hessian":[2.2933477E3,1.1516259E3,1.1417218E3,1.4619455E2,1.0054313E3,9.216681E2,2.2005374E2,2.3929817E1,1.2226474E2,9.701585E2,3.5272804E1,8.2096204E2,1.0070605E2,1.3962198E2,8.043176E1,2.004727E1,1.0221747E2,2.1709656E1,9.4844885E2,8.009009E2,2.0061172E1,6.586419E1,3.4841858E1,2.8700663E1,1.1092131E2,2.0535423E1,5.989634E1,2.5441692E1,7.677577E1,2.644911E1,9.2199976E2,7.774994E2,2.3401463E1,2.558857E1,4.027562E1,5.8436768E1,5.2484543E1,3.0499636E1,2.9396706E1,3.9247803E1,7.382516E2,3.2420834E1,2.0063711E1],"tree_param":{"num_deleted":"0","num_feature":"384","num_nodes":"43","size_leaf_vector":"1"}},{"base_weights":[-9.208145E-3,-9.369072E-1,8.8098675E-1,4.1525966E-1,-1.0969162E0,1.1425005E0,-6.963453E-1,1.0590264E0,-4.599649E-2,-4.1297624E-1,-1.2127553E0,1.2421459E0,-4.0529042E-1,-1.1789337E0,6.98846E-1,6.631201E-2,1.3493675E-2,5.3989476E-1,-9.1990244E-1,-1.2366297E0,-1.5911607E-2,1.2719165E0,-6.851758E-4,-5.361844E-2,3.4271892E-2,-2.7504563E-2,-6.505885E-2,3.2198168E-3,6.414773E-2,-1.37512805E-2,5.6025326E-2,-1.8616041E-2,-1.2021191E0,-1.2569458E0,-2.5518013E-2,3.793435E-2,6.4155586E-2,-6.579069E-2,-4.745353E-2,-6.382109E-2,-2.9870043E-2],"categories":[],"categories_nodes":[],"categories_segments":[],"categories_sizes":[],"default_left":[0,0,0,0,0,0,0,0,0,0,0,0,0,0,0,0,0,0,0,0,0,0,0,0,0,0,0,0,0,0,0,0,0,0,0,0,0,0,0,0,0],"id":17,"left_children":[1,3,5,7,9,11,13,15,-1,17,19,21,23,25,27,-1,-1,29,31,33,-1,35,-1,-1,-1,-1,-1,-1,-1,-1,-1,-1,37,39,-1,-1,-1,-1,-1,-1,-1],"loss_changes":[1.8295568E3,2.3517163E2,4.671455E2,1.0026704E2,7.637549E1,1.5013086E2,1.0949877E2,1.6175232E1,0E0,6.911557E1,1.731665E1,3.410437E1,4.39793E1,8.531647E0,1.5522444E1,0E0,0E0,2.394726E1,1.3939308E1,1.1271118E1,0E0,4.143799E0,0E0,0E0,0E0,0E0,0E0,0E0,0E0,0E0,0E0,0E0,5.0577545E-1,9.317383E0,0E0,0E0,0E0,0E0,0E0,0E0,0E0],"parents":[2147483647,0,0,1,1,2,2,3,3,4,4,5,5,6,6,7,7,9,9,10,10,11,11,12,12,13,13,14,14,17,17,18,18,19,19,21,21,32,32,33,33],"right_children":[2,4,6,8,10,12,14,16,-1,18,20,22,24,26,28,-1,-1,30,32,34,-1,36,-1,-1,-1,-1,-1,-1,-1,-1,-1,-1,38,40,-1,-1,-1,-1,-1,-1,-1],"split_conditions":[9.97121E-2,-8.1571914E-2,-4.0481232E-2,2.0482361E-2,-5.891816E-2,-5.4180466E-2,-5.608666E-2,3.3688568E-2,-4.599649E-2,-7.834425E-3,-3.046018E-2,-4.0972466E-3,1.848685E-2,-4.67183E-2,-2.2326281E-2,6.631201E-2,1.3493675E-2,3.8457483E-2,-5.3007558E-2,1.1758668E-2,-1.5911607E-2,1.3726553E-2,-6.851758E-4,-5.361844E-2,3.4271892E-2,-2.7504563E-2,-6.505885E-2,3.2198168E-3,6.414773E-2,-1.37512805E-2,5.6025326E-2,-1.8616041E-2,5.949891E-2,-4.686176E-2,-2.5518013E-2,3.793435E-2,6.4155586E-2,-6.579069E-2,-4.745353E-2,-6.382109E-2,-2.9870043E-2],"split_indices":[12,356,291,11,36,356,376,177,0,296,19,40,382,36,327,0,0,249,291,361,0,35,0,0,0,0,0,0,0,0,0,0,100,227,0,0,0,0,0,0,0],"split_type":[0,0,0,0,0,0,0,0,0,0,0,0,0,0,0,0,0,0,0,0,0,0,0,0,0,0,0,0,0,0,0,0,0,0,0,0,0,0,0,0,0],"sum_hessian":[2.2134082E3,1.0838466E3,1.1295618E3,1.1451711E2,9.6932947E2,9.691562E2,1.6040555E2,7.7403534E1,3.7113583E1,1.4105777E2,8.282717E2,9.1072217E2,5.8434013E1,1.1929657E2,4.110898E1,5.731546E1,2.0088078E1,4.896085E1,9.209692E1,8.063677E2,2.1904016E1,8.896204E2,2.1101744E1,3.626906E1,2.2164955E1,2.031132E1,9.898525E1,2.0237535E1,2.0871445E1,2.0589157E1,2.8371693E1,3.2111206E1,5.998571E1,7.83714E2,2.2653717E1,2.0459148E1,8.6916125E2,3.8491604E1,2.1494108E1,7.6032666E2,2.3387312E1],"tree_param":{"num_deleted":"0","num_feature":"384","num_nodes":"41","size_leaf_vector":"1"}},{"base_weights":[3.6412384E-4,9.610402E-1,-8.486828E-1,-9.456533E-1,1.1439422E0,-1.0468153E0,5.001681E-1,-2.9316673E-3,-1.1974529E0,1.215022E0,-3.1873292E-1,-1.1612092E0,-1.8443875E-1,-1.0247233E0,1.1035092E0,-6.5019764E-2,-4.4867907E-2,1.243548E0,-1.5628786E-4,-6.1528694E-2,3.115178E-2,-1.2079589E0,-4.7716802E-1,6.045812E-1,-1.0314816E0,-3.4535605E-2,-6.5104865E-2,6.446622E-2,1.4701225E-2,1.2579293E0,3.611381E-2,-2.0610748E-2,-1.2278218E0,-5.7621147E-2,1.189202E-2,-1.8228602E-2,6.756623E-2,-6.3179545E-2,-3.1200781E-2,6.319108E-2,4.8630353E-2,-6.201127E-2,-3.6346808E-2],"categories":[],"categories_nodes":[],"categories_segments":[],"categories_sizes":[],"default_left":[0,0,0,0,0,0,0,0,0,0,0,0,0,0,0,0,0,0,0,0,0,0,0,0,0,0,0,0,0,0,0,0,0,0,0,0,0,0,0,0,0,0,0],"id":18,"left_children":[1,3,5,7,9,11,13,-1,15,17,19,21,23,25,27,-1,-1,29,-1,-1,-1,31,33,35,37,-1,-1,-1,-1,39,-1,-1,41,-1,-1,-1,-1,-1,-1,-1,-1,-1,-1],"loss_changes":[1.7823713E3,3.5860864E2,3.1053253E2,2.009465E1,9.7691284E1,9.959509E1,1.3844006E2,0E0,1.0038757E0,3.1026123E1,3.8693893E1,2.7982788E1,8.060907E1,3.0685043E0,1.5777832E1,0E0,0E0,5.6308594E0,0E0,0E0,0E0,1.2696167E1,2.8655659E1,4.5791122E1,4.7051506E0,0E0,0E0,0E0,0E0,1.9567871E-1,0E0,0E0,4.1584473E0,0E0,0E0,0E0,0E0,0E0,0E0,0E0,0E0,0E0,0E0],"parents":[2147483647,0,0,1,1,2,2,3,3,4,4,5,5,6,6,8,8,9,9,10,10,11,11,12,12,13,13,14,14,17,17,21,21,22,22,23,23,24,24,29,29,32,32],"right_children":[2,4,6,8,10,12,14,-1,16,18,20,22,24,26,28,-1,-1,30,-1,-1,-1,32,34,36,38,-1,-1,-1,-1,40,-1,-1,42,-1,-1,-1,-1,-1,-1,-1,-1,-1,-1],"split_conditions":[-5.7621814E-2,7.71804E-2,4.3142963E-2,1.0155148E-2,-5.448489E-2,-3.600672E-2,-4.4614483E-2,-2.9316673E-3,6.1950993E-2,-3.1162638E-3,-3.367892E-2,-1.43119795E-2,-5.3007558E-2,-4.1645866E-2,-4.1806396E-2,-6.5019764E-2,-4.4867907E-2,-3.4090724E-2,-1.5628786E-4,-6.1528694E-2,3.115178E-2,9.407525E-3,-4.0267844E-2,8.00774E-2,6.1877016E-2,-3.4535605E-2,-6.5104865E-2,6.446622E-2,1.4701225E-2,-2.43111E-2,3.611381E-2,-2.0610748E-2,7.322482E-2,-5.7621147E-2,1.189202E-2,-1.8228602E-2,6.756623E-2,-6.3179545E-2,-3.1200781E-2,6.319108E-2,4.8630353E-2,-6.201127E-2,-3.6346808E-2],"split_indices":[18,12,137,11,356,117,231,0,12,40,231,274,291,168,239,0,0,291,0,0,0,203,327,135,100,0,0,0,0,36,0,0,145,0,0,0,0,0,0,0,0,0,0],"split_type":[0,0,0,0,0,0,0,0,0,0,0,0,0,0,0,0,0,0,0,0,0,0,0,0,0,0,0,0,0,0,0,0,0,0,0,0,0,0,0,0,0,0,0],"sum_hessian":[2.1831917E3,1.024201E3,1.1589906E3,8.928317E1,9.3491785E2,1.0107462E3,1.482444E2,2.0013617E1,6.9269554E1,8.917519E2,4.3165947E1,8.920673E2,1.18678925E2,4.1828403E1,1.06416E2,4.9095062E1,2.0174496E1,8.7132666E2,2.0425253E1,2.1775637E1,2.1390312E1,8.342835E2,5.778378E1,6.1592133E1,5.708679E1,2.0560194E1,2.126821E1,8.606681E1,2.0349186E1,8.465579E2,2.4768717E1,2.0847494E1,8.1343604E2,2.9403406E1,2.8380373E1,2.7027088E1,3.4565044E1,3.5030746E1,2.2056044E1,8.260691E2,2.048884E1,7.923389E2,2.1097084E1],"tree_param":{"num_deleted":"0","num_feature":"384","num_nodes":"43","size_leaf_vector":"1"}},{"base_weights":[-7.626723E-3,-8.5473955E-1,9.375863E-1,9.374419E-2,-1.0934948E0,-8.962725E-1,1.1668973E0,-9.446563E-1,8.0107266E-1,-1.148652E0,-5.234785E-2,2.1860763E-2,-1.1983436E0,-1.1157493E-2,1.2220116E0,-1.2024535E0,-7.6490655E-3,-2.2334542E-2,1.1241118E0,-1.1911753E0,-4.989409E-1,4.363381E-2,-4.9084447E-2,-6.388431E-2,-4.3948706E-2,1.2436252E0,1.7890602E-2,-6.4147465E-2,-4.86834E-2,1.9487279E-2,1.2958833E0,-1.213133E0,-2.724939E-2,1.6060924E-2,-5.1923778E-2,4.2865057E-2,6.263279E-2,5.9755486E-2,7.6616615E-2,-3.208668E-2,-6.1593603E-2],"categories":[],"categories_nodes":[],"categories_segments":[],"categories_sizes":[],"default_left":[0,0,0,0,0,0,0,0,0,0,0,0,0,0,0,0,0,0,0,0,0,0,0,0,0,0,0,0,0,0,0,0,0,0,0,0,0,0,0,0,0],"id":19,"left_children":[1,3,5,7,9,11,13,15,17,19,21,-1,23,-1,25,27,-1,-1,29,31,33,-1,-1,-1,-1,35,-1,-1,-1,-1,37,39,-1,-1,-1,-1,-1,-1,-1,-1,-1],"loss_changes":[1.6765175E3,2.5015479E2,4.1719977E2,1.6453131E2,5.0603027E1,4.505661E1,6.76947E1,1.8348381E1,5.41811E1,2.2552124E1,3.9914715E1,0E0,1.1677551E0,0E0,1.5369019E1,9.635925E-3,0E0,0E0,1.2874985E1,1.0485474E1,2.3868366E1,0E0,0E0,0E0,0E0,1.8062744E0,0E0,0E0,0E0,0E0,2.0675659E-1,7.3360596E0,0E0,0E0,0E0,0E0,0E0,0E0,0E0,0E0,0E0],"parents":[2147483647,0,0,1,1,2,2,3,3,4,4,5,5,6,6,7,7,8,8,9,9,10,10,12,12,14,14,15,15,18,18,19,19,20,20,25,25,30,30,31,31],"right_children":[2,4,6,8,10,12,14,16,18,20,22,-1,24,-1,26,28,-1,-1,30,32,34,-1,-1,-1,-1,36,-1,-1,-1,-1,38,40,-1,-1,-1,-1,-1,-1,-1,-1,-1],"split_conditions":[3.3255175E-2,-6.392688E-2,3.709067E-2,-5.2525632E-2,1.0078187E-2,3.8892317E-3,7.668183E-2,4.474188E-2,-3.663982E-2,7.9439595E-2,1.1044197E-2,2.1860763E-2,1.7688101E-2,-1.1157493E-2,-5.380339E-2,-2.3964565E-2,-7.6490655E-3,-2.2334542E-2,8.734785E-2,-6.696362E-4,2.6740566E-2,4.363381E-2,-4.9084447E-2,-6.388431E-2,-4.3948706E-2,-4.8163924E-2,1.7890602E-2,-6.4147465E-2,-4.86834E-2,1.9487279E-2,5.1483717E-2,-8.6274475E-2,-2.724939E-2,1.6060924E-2,-5.1923778E-2,4.2865057E-2,6.263279E-2,5.9755486E-2,7.6616615E-2,-3.208668E-2,-6.1593603E-2],"split_indices":[137,291,44,117,361,219,12,154,231,44,219,0,76,0,356,344,0,0,12,374,106,0,0,0,0,104,0,0,0,0,0,258,0,0,0,0,0,0,0,0,0],"split_type":[0,0,0,0,0,0,0,0,0,0,0,0,0,0,0,0,0,0,0,0,0,0,0,0,0,0,0,0,0,0,0,0,0,0,0,0,0,0,0,0,0],"sum_hessian":[2.0918083E3,1.1032006E3,9.886077E2,2.219772E2,8.812234E2,1.0955556E2,8.790522E2,8.9804016E1,1.3217319E2,8.367893E2,4.4434116E1,2.015117E1,8.940439E1,3.3408203E1,8.45644E2,6.735273E1,2.2451286E1,2.7102997E1,1.0507019E2,7.846039E2,5.218544E1,2.2299337E1,2.2134779E1,6.920964E1,2.019475E1,8.245822E2,2.106177E1,4.64146E1,2.093813E1,2.053726E1,8.453293E1,7.5797046E2,2.6633406E1,2.0868053E1,3.1317385E1,2.1026375E1,8.0355585E2,6.3516743E1,2.1016188E1,2.5187515E1,7.3278296E2],"tree_param":{"num_deleted":"0","num_feature":"384","num_nodes":"41","size_leaf_vector":"1"}},{"base_weights":[-1.8748082E-3,9.333579E-1,-8.4007174E-1,-6.1119115E-1,1.1309164E0,-1.0008965E0,6.786457E-1,4.7167476E-2,-9.715319E-1,-1.2338735E-1,1.2006892E0,-1.1232016E0,-1.0575845E-1,-4.8675247E-2,1.1298978E0,-1.3621921E-2,-6.0751926E-2,-5.5508293E-2,4.124172E-2,1.2252251E0,1.5301654E-2,-1.169277E0,-4.1295218E-1,8.600586E-1,-8.365256E-1,6.282126E-2,3.58509E-2,6.1592788E-2,4.6922732E-2,-5.918054E-1,-1.2018687E0,1.7110646E-2,-4.484679E-2,6.908878E-2,1.1433531E-2,-2.0233016E-2,-6.1389606E-2,5.8125635E-3,-5.9052307E-2,-3.3888113E-2,-6.0784616E-2],"categories":[],"categories_nodes":[],"categories_segments":[],"categories_sizes":[],"default_left":[0,0,0,0,0,0,0,0,0,0,0,0,0,0,0,0,0,0,0,0,0,0,0,0,0,0,0,0,0,0,0,0,0,0,0,0,0,0,0,0,0],"id":20,"left_children":[1,3,5,7,9,11,13,-1,15,17,19,21,23,-1,25,-1,-1,-1,-1,27,-1,29,31,33,35,-1,-1,-1,-1,37,39,-1,-1,-1,-1,-1,-1,-1,-1,-1,-1],"loss_changes":[1.5903223E3,2.9327435E2,2.6198822E2,6.219007E1,7.4578E1,1.05837585E2,7.791995E1,0E0,1.4869797E1,4.3697674E1,1.7312134E1,2.7378296E1,8.36095E1,0E0,3.3513565E0,0E0,0E0,0E0,0E0,3.3447266E-1,0E0,1.4325684E1,1.982821E1,1.6509834E1,1.0885967E1,0E0,0E0,0E0,0E0,1.876733E1,4.6483154E0,0E0,0E0,0E0,0E0,0E0,0E0,0E0,0E0,0E0,0E0],"parents":[2147483647,0,0,1,1,2,2,3,3,4,4,5,5,6,6,8,8,9,9,10,10,11,11,12,12,14,14,19,19,21,21,22,22,23,23,24,24,29,29,30,30],"right_children":[2,4,6,8,10,12,14,-1,16,18,20,22,24,-1,26,-1,-1,-1,-1,28,-1,30,32,34,36,-1,-1,-1,-1,38,40,-1,-1,-1,-1,-1,-1,-1,-1,-1,-1],"split_conditions":[-5.7621814E-2,8.415368E-2,4.8909385E-2,-8.1571914E-2,1.581704E-2,-3.573174E-2,7.668183E-2,4.7167476E-2,-5.377686E-2,3.255773E-2,7.595298E-2,-1.2531097E-2,-6.098968E-2,-4.8675247E-2,-6.703599E-2,-1.3621921E-2,-6.0751926E-2,-5.5508293E-2,4.124172E-2,1.3960286E-2,1.5301654E-2,1.6060479E-2,-4.8307095E-2,-6.53034E-2,-5.2318245E-2,6.282126E-2,3.58509E-2,6.1592788E-2,4.6922732E-2,-3.577264E-2,2.4096107E-2,1.7110646E-2,-4.484679E-2,6.908878E-2,1.1433531E-2,-2.0233016E-2,-6.1389606E-2,5.8125635E-3,-5.9052307E-2,-3.3888113E-2,-6.0784616E-2],"split_indices":[18,12,137,356,137,117,12,0,36,166,346,274,291,0,356,0,0,0,0,296,0,203,291,103,36,0,0,0,0,26,365,0,0,0,0,0,0,0,0,0,0],"split_type":[0,0,0,0,0,0,0,0,0,0,0,0,0,0,0,0,0,0,0,0,0,0,0,0,0,0,0,0,0,0,0,0,0,0,0,0,0,0,0,0,0],"sum_hessian":[2.026707E3,9.578527E2,1.0688542E3,1.08384995E2,8.494678E2,9.6681433E2,1.0203989E2,2.0091333E1,8.829366E1,4.472263E1,8.047451E2,8.50371E2,1.16443344E2,2.164277E1,8.039712E1,2.335671E1,6.493695E1,2.183205E1,2.2890577E1,7.8290454E2,2.1840553E1,7.979594E2,5.2411583E1,5.0079258E1,6.636408E1,5.997472E1,2.0422398E1,7.6199023E2,2.0914333E1,4.3653217E1,7.543062E2,2.0585194E1,3.1826387E1,2.6770378E1,2.330888E1,3.2512375E1,3.3851707E1,2.0192167E1,2.3461052E1,2.0669744E1,7.336365E2],"tree_param":{"num_deleted":"0","num_feature":"384","num_nodes":"41","size_leaf_vector":"1"}},{"base_weights":[1.4544198E-2,9.877775E-1,-7.5037366E-1,-5.7893026E-1,1.1351097E0,-9.667887E-1,5.3373945E-1,-1.1449032E0,2.156069E-2,2.1971302E-1,1.2012528E0,-1.1106637E0,-5.3577125E-2,-9.4193256E-1,1.0685829E0,-4.4846147E-2,-6.454025E-2,-5.2697748E-2,5.1550753E-2,3.8916778E-2,6.0643405E-2,-1.1630476E0,-4.0665978E-1,-7.982358E-1,7.910721E-1,-2.7668495E-2,-6.291179E-2,6.2194306E-2,1.0278692E-2,-6.203284E-1,-1.1923728E0,-5.4340977E-2,1.913033E-2,-1.1370133E0,-8.437463E-3,-1.1914979E-3,1.1955086E0,-5.8492918E-2,-1.9829932E-3,-6.0427934E-2,-3.4311987E-2,-6.339372E-2,-4.639044E-2,4.533443E-2,7.1339436E-2],"categories":[],"categories_nodes":[],"categories_segments":[],"categories_sizes":[],"default_left":[0,0,0,0,0,0,0,0,0,0,0,0,0,0,0,0,0,0,0,0,0,0,0,0,0,0,0,0,0,0,0,0,0,0,0,0,0,0,0,0,0,0,0,0,0],"id":21,"left_children":[1,3,5,7,9,11,13,15,-1,17,19,21,23,25,27,-1,-1,-1,-1,-1,-1,29,31,33,35,-1,-1,-1,-1,37,39,-1,-1,41,-1,-1,43,-1,-1,-1,-1,-1,-1,-1,-1],"loss_changes":[1.4724431E3,2.0157397E2,3.082896E2,4.3646965E1,4.7928345E1,1.24512085E2,1.2758176E2,6.024246E-1,0E0,5.777536E1,2.701294E0,2.9731384E1,8.2457695E1,4.6124916E0,1.7623367E1,0E0,0E0,0E0,0E0,0E0,0E0,1.1384033E1,3.1691013E1,1.4658718E1,2.028328E1,0E0,0E0,0E0,0E0,1.3079743E1,5.0823975E0,0E0,0E0,5.8296204E-2,0E0,0E0,1.4512367E0,0E0,0E0,0E0,0E0,0E0,0E0,0E0,0E0],"parents":[2147483647,0,0,1,1,2,2,3,3,4,4,5,5,6,6,7,7,9,9,10,10,11,11,12,12,13,13,14,14,21,21,22,22,23,23,24,24,29,29,30,30,33,33,36,36],"right_children":[2,4,6,8,10,12,14,16,-1,18,20,22,24,26,28,-1,-1,-1,-1,-1,-1,30,32,34,36,-1,-1,-1,-1,38,40,-1,-1,42,-1,-1,44,-1,-1,-1,-1,-1,-1,-1,-1],"split_conditions":[-6.0837936E-2,8.2925245E-2,4.276796E-2,-3.9588127E-2,-2.1150572E-2,-3.7017006E-2,-4.4614483E-2,-3.926501E-2,2.156069E-2,6.309168E-2,1.5421063E-2,-1.4075505E-2,7.857717E-2,-6.0642492E-2,-4.1432794E-2,-4.4846147E-2,-6.454025E-2,-5.2697748E-2,5.1550753E-2,3.8916778E-2,6.0643405E-2,1.6060479E-2,-4.0267844E-2,5.3518254E-2,7.829358E-2,-2.7668495E-2,-6.291179E-2,6.2194306E-2,1.0278692E-2,2.0062268E-2,6.9175616E-2,-5.4340977E-2,1.913033E-2,-3.1522572E-2,-8.437463E-3,-1.1914979E-3,-4.3391325E-2,-5.8492918E-2,-1.9829932E-3,-6.0427934E-2,-3.4311987E-2,-6.339372E-2,-4.639044E-2,4.533443E-2,7.1339436E-2],"split_indices":[18,12,137,274,361,117,231,275,0,44,137,274,135,356,239,0,0,0,0,0,0,203,327,249,12,0,0,0,0,330,0,0,0,142,0,0,19,0,0,0,0,0,0,0,0],"split_type":[0,0,0,0,0,0,0,0,0,0,0,0,0,0,0,0,0,0,0,0,0,0,0,0,0,0,0,0,0,0,0,0,0,0,0,0,0,0,0,0,0,0,0,0,0],"sum_hessian":[1.9759156E3,8.69424E2,1.1064917E3,7.448049E1,7.9494354E2,9.4711835E2,1.5937334E2,4.7649548E1,2.683094E1,5.386026E1,7.4108325E2,8.1802386E2,1.290945E2,4.21945E1,1.1717883E2,2.0297903E1,2.7351646E1,2.0841682E1,3.3018578E1,2.1627333E1,7.1945593E2,7.607645E2,5.7259323E1,6.863741E1,6.0457085E1,2.0168278E1,2.202622E1,9.702815E1,2.015068E1,4.013555E1,7.2062897E2,3.055295E1,2.6706371E1,4.4098297E1,2.4539114E1,2.0364864E1,4.009222E1,2.0099358E1,2.0036194E1,6.9695294E2,2.3676031E1,2.4015644E1,2.0082653E1,2.0016333E1,2.0075888E1],"tree_param":{"num_deleted":"0","num_feature":"384","num_nodes":"45","size_leaf_vector":"1"}},{"base_weights":[4.778845E-4,8.80566E-1,-8.219364E-1,-6.8661034E-1,1.0943712E0,-9.8069644E-1,4.991333E-1,2.845082E-2,-1.0472629E0,1.1532866E0,-2.0905886E-2,-1.1030413E0,-1.4168787E-1,-5.1268723E-2,1.0212595E0,-6.022386E-2,-2.516516E-2,6.2727565E-3,1.1890347E0,-1.1614223E0,-5.4679835E-1,5.861977E-1,-9.9017936E-1,1.9557748E-2,6.1540823E-2,6.0326677E-2,2.6406998E-2,-3.518553E-2,-1.1878266E0,1.2522518E-2,-8.9016885E-1,5.4415893E-2,-1.8594807E-2,-6.1184295E-2,-2.918736E-2,-5.9965234E-2,-3.9915476E-2,-6.0326826E-2,-1.9103821E-2],"categories":[],"categories_nodes":[],"categories_segments":[],"categories_sizes":[],"default_left":[0,0,0,0,0,0,0,0,0,0,0,0,0,0,0,0,0,0,0,0,0,0,0,0,0,0,0,0,0,0,0,0,0,0,0,0,0,0,0],"id":22,"left_children":[1,3,5,7,9,11,13,-1,15,17,-1,19,21,-1,23,-1,-1,-1,25,27,29,31,33,-1,-1,-1,-1,-1,35,-1,37,-1,-1,-1,-1,-1,-1,-1,-1],"loss_changes":[1.3719999E3,3.0756628E2,2.0600415E2,5.0653458E1,7.231555E1,8.9671265E1,8.5252525E1,0E0,6.7677155E0,2.8369995E1,0E0,2.4161499E1,7.0070366E1,0E0,9.989632E0,0E0,0E0,0E0,8.036133E0,7.505127E0,2.0595505E1,2.9841877E1,4.251587E0,0E0,0E0,0E0,0E0,0E0,1.9535522E0,0E0,7.935665E0,0E0,0E0,0E0,0E0,0E0,0E0,0E0,0E0],"parents":[2147483647,0,0,1,1,2,2,3,3,4,4,5,5,6,6,8,8,9,9,11,11,12,12,14,14,18,18,19,19,20,20,21,21,22,22,28,28,30,30],"right_children":[2,4,6,8,10,12,14,-1,16,18,-1,20,22,-1,24,-1,-1,-1,26,28,30,32,34,-1,-1,-1,-1,-1,36,-1,38,-1,-1,-1,-1,-1,-1,-1,-1],"split_conditions":[-5.6394134E-2,8.322328E-2,4.6425957E-2,-7.667482E-2,-4.955179E-2,-3.600672E-2,2.3189114E-2,2.845082E-2,-1.2346304E-2,1.1920945E-2,-2.0905886E-2,-1.9611655E-2,-5.3007558E-2,-5.1268723E-2,4.7712866E-2,-6.022386E-2,-2.516516E-2,6.2727565E-3,7.492601E-2,1.681953E-2,9.931638E-3,-4.5634888E-2,-2.8989723E-2,1.9557748E-2,6.1540823E-2,6.0326677E-2,2.6406998E-2,-3.518553E-2,4.9265843E-2,1.2522518E-2,-4.5185525E-2,5.4415893E-2,-1.8594807E-2,-6.1184295E-2,-2.918736E-2,-5.9965234E-2,-3.9915476E-2,-6.0326826E-2,-1.9103821E-2],"split_indices":[18,12,137,356,356,117,35,0,361,137,0,274,291,0,371,0,0,0,346,203,11,356,274,0,0,0,0,0,382,0,172,0,0,0,0,0,0,0,0],"split_type":[0,0,0,0,0,0,0,0,0,0,0,0,0,0,0,0,0,0,0,0,0,0,0,0,0,0,0,0,0,0,0,0,0,0,0,0,0,0,0],"sum_hessian":[1.893559E3,9.1467236E2,9.7888666E2,1.0954013E2,8.051322E2,8.740991E2,1.0478754E2,2.4313599E1,8.522653E1,7.751747E2,2.9957554E1,7.625839E2,1.1151521E2,2.6486942E1,7.830059E1,6.5175385E1,2.0051147E1,2.620609E1,7.4896857E2,6.8916406E2,7.341986E1,6.0189915E1,5.13253E1,2.025714E1,5.8043453E1,7.288449E2,2.0123665E1,3.909602E1,6.5006805E2,2.2183681E1,5.123618E1,3.9403378E1,2.078654E1,3.1320187E1,2.0005112E1,6.294411E2,2.0626945E1,3.0728315E1,2.0507866E1],"tree_param":{"num_deleted":"0","num_feature":"384","num_nodes":"39","size_leaf_vector":"1"}},{"base_weights":[9.448673E-3,-8.10861E-1,8.6782366E-1,4.9377063E-1,-1.0041565E0,-6.950432E-1,1.1392305E0,1.0043882E0,-4.1193496E-2,-1.1002454E0,-1.9856045E-1,-1.0556445E0,3.62154E-2,-1.6714765E-2,1.1841292E0,1.2415576E-2,6.119731E-2,-1.1337483E0,-2.5754424E-3,2.504397E-2,-7.6006496E-1,-2.3457507E-2,-5.9866022E-2,5.998972E-2,3.0188927E-2,-2.6840135E-2,-1.1591612E0,-5.609488E-2,-1.0956842E-2,-5.9025772E-2,-2.951472E-2],"categories":[],"categories_nodes":[],"categories_segments":[],"categories_sizes":[],"default_left":[0,0,0,0,0,0,0,0,0,0,0,0,0,0,0,0,0,0,0,0,0,0,0,0,0,0,0,0,0,0,0],"id":23,"left_children":[1,3,5,7,9,11,13,15,-1,17,19,21,-1,-1,23,-1,-1,25,-1,-1,27,-1,-1,-1,-1,-1,29,-1,-1,-1,-1],"loss_changes":[1.2992682E3,2.3843402E2,3.832577E2,8.319631E1,6.3419434E1,6.936726E1,5.1248535E1,1.441777E1,0E0,2.5740967E1,3.5267006E1,8.353149E0,0E0,0E0,6.05896E0,0E0,0E0,1.0171204E1,0E0,0E0,9.475803E0,0E0,0E0,0E0,0E0,0E0,7.5827637E0,0E0,0E0,0E0,0E0],"parents":[2147483647,0,0,1,1,2,2,3,3,4,4,5,5,6,6,7,7,9,9,10,10,11,11,14,14,17,17,20,20,26,26],"right_children":[2,4,6,8,10,12,14,16,-1,18,20,22,-1,-1,24,-1,-1,26,-1,-1,28,-1,-1,-1,-1,-1,30,-1,-1,-1,-1],"split_conditions":[1.0155913E-1,-8.0415405E-2,1.6651882E-2,4.9176946E-2,5.2762747E-2,-3.774653E-2,3.709067E-2,2.5976157E-2,-4.1193496E-2,5.470539E-2,-3.450185E-2,1.2856556E-2,3.62154E-2,-1.6714765E-2,-5.4180466E-2,1.2415576E-2,6.119731E-2,-6.718788E-2,-2.5754424E-3,2.504397E-2,-5.2893702E-2,-2.3457507E-2,-5.9866022E-2,5.998972E-2,3.0188927E-2,-2.6840135E-2,-2.1383412E-2,-5.609488E-2,-1.0956842E-2,-5.9025772E-2,-2.951472E-2],"split_indices":[12,356,137,41,249,117,44,137,0,137,115,11,0,0,356,0,0,288,0,0,206,0,0,0,0,0,117,0,0,0,0],"split_type":[0,0,0,0,0,0,0,0,0,0,0,0,0,0,0,0,0,0,0,0,0,0,0,0,0,0,0,0,0,0,0],"sum_hessian":[1.8432026E3,9.425275E2,9.0067505E2,1.21425026E2,8.2110254E2,1.330367E2,7.6763837E2,8.768335E1,3.3741676E1,7.3327423E2,8.78283E1,1.0628907E2,2.674763E1,2.2507946E1,7.4513043E2,2.021193E1,6.747142E1,7.104956E2,2.2778599E1,3.915844E1,4.866986E1,2.1518906E1,8.4770164E1,7.2450665E2,2.0623772E1,2.9915192E1,6.8058044E2,2.8519104E1,2.0150759E1,6.549208E2,2.5659655E1],"tree_param":{"num_deleted":"0","num_feature":"384","num_nodes":"31","size_leaf_vector":"1"}},{"base_weights":[3.4416278E-3,8.4590065E-1,-8.0779094E-1,-7.0222026E-1,1.0585732E0,-1.0760643E0,-1.2053054E-1,2.609693E-2,-1.0103635E0,-1.819209E-1,1.1355467E0,-1.1325334E0,-5.8031585E-3,-5.9531283E-1,9.116813E-1,-5.815309E-2,-2.4956284E-2,4.0043943E-2,-6.610966E-2,1.2880963E-3,1.1700597E0,-2.9410243E-2,-1.1552858E0,-1.2395377E-2,-9.6946836E-1,6.0539503E-2,6.826982E-3,3.3191252E-2,5.9214193E-2,-1.1697518E0,-3.5861257E-2,-3.8239546E-2,4.6043608E-1,-1.8945457E-2,-1.1624916E0,-5.9060346E-2,-4.0815044E-2,5.3274184E-2,-6.482919E-3,-6.2169757E-2,-4.433952E-2],"categories":[],"categories_nodes":[],"categories_segments":[],"categories_sizes":[],"default_left":[0,0,0,0,0,0,0,0,0,0,0,0,0,0,0,0,0,0,0,0,0,0,0,0,0,0,0,0,0,0,0,0,0,0,0,0,0,0,0,0,0],"id":24,"left_children":[1,3,5,7,9,11,13,-1,15,17,19,21,-1,23,25,-1,-1,-1,-1,-1,27,-1,29,31,33,-1,-1,-1,-1,35,-1,-1,37,-1,39,-1,-1,-1,-1,-1,-1],"loss_changes":[1.2136426E3,2.8755902E2,1.666684E2,4.044403E1,7.337848E1,3.5135254E1,1.25570984E2,0E0,6.045624E0,5.219933E1,2.7611816E1,6.928406E0,0E0,3.8231884E1,1.856163E1,0E0,0E0,0E0,0E0,0E0,4.253601E0,0E0,2.8909912E0,2.509974E1,1.1732185E1,0E0,0E0,0E0,0E0,1.3364258E0,0E0,0E0,1.561282E1,0E0,6.817169E-1,0E0,0E0,0E0,0E0,0E0,0E0],"parents":[2147483647,0,0,1,1,2,2,3,3,4,4,5,5,6,6,8,8,9,9,10,10,11,11,13,13,14,14,20,20,22,22,23,23,24,24,29,29,32,32,34,34],"right_children":[2,4,6,8,10,12,14,-1,16,18,20,22,-1,24,26,-1,-1,-1,-1,-1,28,-1,30,32,34,-1,-1,-1,-1,36,-1,-1,38,-1,40,-1,-1,-1,-1,-1,-1],"split_conditions":[-5.522629E-2,8.119066E-2,1.6547339E-2,4.362928E-3,-2.86526E-2,-5.561461E-2,1.0597658E-1,2.609693E-2,5.3630434E-2,-4.5963775E-2,9.731334E-3,4.7565583E-2,-5.8031585E-3,2.882321E-2,-3.801808E-2,-5.815309E-2,-2.4956284E-2,4.0043943E-2,-6.610966E-2,1.2880963E-3,-5.3876866E-2,-2.9410243E-2,5.1924385E-2,5.86482E-2,-5.547853E-3,6.0539503E-2,6.826982E-3,3.3191252E-2,5.9214193E-2,-1.4119314E-2,-3.5861257E-2,-3.8239546E-2,3.3296442E-3,-1.8945457E-2,-4.6950027E-2,-5.9060346E-2,-4.0815044E-2,5.3274184E-2,-6.482919E-3,-6.2169757E-2,-4.433952E-2],"split_indices":[18,12,382,11,361,227,12,0,154,36,137,146,0,132,168,0,0,0,0,0,274,0,249,257,296,0,0,0,0,182,0,0,62,0,182,0,0,0,0,0,0],"split_type":[0,0,0,0,0,0,0,0,0,0,0,0,0,0,0,0,0,0,0,0,0,0,0,0,0,0,0,0,0,0,0,0,0,0,0,0,0,0,0,0,0],"sum_hessian":[1.7738107E3,8.701371E2,9.0367365E2,1.048191E2,7.65318E2,6.4955347E2,2.5412018E2,2.0939405E1,8.387969E1,4.463422E1,7.206838E2,6.132984E2,3.6255077E1,1.7434889E2,7.977129E1,6.3606495E1,2.0273201E1,2.4132275E1,2.0501945E1,2.1789173E1,6.988946E2,2.5684172E1,5.876142E2,6.856336E1,1.0578552E2,5.7154648E1,2.2616642E1,2.0403482E1,6.784911E2,5.672131E2,2.040113E1,2.6221228E1,4.2342136E1,2.6788494E1,7.8997025E1,5.471387E2,2.0074432E1,2.0508417E1,2.1833721E1,5.836119E1,2.0635834E1],"tree_param":{"num_deleted":"0","num_feature":"384","num_nodes":"41","size_leaf_vector":"1"}},{"base_weights":[2.1287336E-4,-7.799634E-1,8.593455E-1,1.3392909E-1,-1.012189E0,-7.685425E-1,1.083143E0,-8.498004E-1,7.5926703E-1,7.589826E-3,-1.0638609E0,-1.1053108E0,2.4662424E-2,1.1400255E0,-2.375931E-2,-5.6978792E-2,-6.9947923E-3,-1.63828E-2,1.0588273E0,-1.0990396E0,5.010429E-3,-6.0264803E-2,-3.8655102E-2,5.637716E-3,1.1705467E0,1.2469653E0,2.087164E-2,-6.654824E-1,-1.132517E0,5.9126724E-2,3.742295E-2,6.702481E-2,4.9797706E-2,-5.3801168E-2,-2.9830732E-3,-3.1949785E-2,-5.7774812E-2],"categories":[],"categories_nodes":[],"categories_segments":[],"categories_sizes":[],"default_left":[0,0,0,0,0,0,0,0,0,0,0,0,0,0,0,0,0,0,0,0,0,0,0,0,0,0,0,0,0,0,0,0,0,0,0,0,0],"id":25,"left_children":[1,3,5,7,9,11,13,15,17,-1,19,21,-1,23,-1,-1,-1,-1,25,27,-1,-1,-1,-1,29,31,-1,33,35,-1,-1,-1,-1,-1,-1,-1,-1],"loss_changes":[1.1522941E3,1.9134747E2,2.9890503E2,1.13488846E2,4.337787E1,4.281305E1,6.4336914E1,1.4602875E1,3.7033875E1,0E0,2.8288757E1,1.6863785E0,0E0,2.1647522E1,0E0,0E0,0E0,0E0,1.0166946E1,8.942078E0,0E0,0E0,0E0,0E0,2.527771E0,2.6083374E-1,0E0,1.2448332E1,6.2782593E0,0E0,0E0,0E0,0E0,0E0,0E0,0E0,0E0],"parents":[2147483647,0,0,1,1,2,2,3,3,4,4,5,5,6,6,7,7,8,8,10,10,11,11,13,13,18,18,19,19,24,24,25,25,27,27,28,28],"right_children":[2,4,6,8,10,12,14,16,18,-1,20,22,-1,24,-1,-1,-1,-1,26,28,-1,-1,-1,-1,30,32,-1,34,36,-1,-1,-1,-1,-1,-1,-1,-1],"split_conditions":[3.236936E-2,-6.392688E-2,3.709067E-2,-5.3173408E-2,-7.3844545E-2,2.5387261E-2,-3.577224E-2,-2.6587868E-2,-3.663982E-2,7.589826E-3,6.9519825E-2,1.7233346E-2,2.4662424E-2,-3.5277974E-2,-2.375931E-2,-5.6978792E-2,-6.9947923E-3,-1.63828E-2,-3.3158444E-2,3.1584468E-2,5.010429E-3,-6.0264803E-2,-3.8655102E-2,5.637716E-3,1.4606496E-2,6.694302E-2,2.087164E-2,4.5696817E-2,9.682944E-3,5.9126724E-2,3.742295E-2,6.702481E-2,4.9797706E-2,-5.3801168E-2,-2.9830732E-3,-3.1949785E-2,-5.7774812E-2],"split_indices":[137,291,44,117,18,382,18,361,231,0,249,76,0,361,0,0,0,0,239,365,0,0,0,0,296,283,0,325,15,0,0,0,0,0,0,0,0],"split_type":[0,0,0,0,0,0,0,0,0,0,0,0,0,0,0,0,0,0,0,0,0,0,0,0,0,0,0,0,0,0,0,0,0,0,0,0,0],"sum_hessian":[1.7171365E3,8.99969E2,8.171675E2,1.8243684E2,7.1753217E2,9.8469925E1,7.186976E2,7.076162E1,1.11675224E2,3.041655E1,6.871156E2,7.782317E1,2.0646757E1,6.9364636E2,2.5051212E1,4.9820267E1,2.0941349E1,2.4108023E1,8.75672E1,6.6701404E2,2.010158E1,5.7799156E1,2.0024014E1,2.0149647E1,6.734967E2,6.6976944E1,2.0590254E1,4.930883E1,6.177052E2,6.5314496E2,2.035179E1,4.5632973E1,2.1343973E1,2.892879E1,2.038004E1,2.8763538E1,5.8894165E2],"tree_param":{"num_deleted":"0","num_feature":"384","num_nodes":"37","size_leaf_vector":"1"}},{"base_weights":[2.513577E-3,7.7189225E-1,-8.443167E-1,-8.295114E-1,9.8968935E-1,-9.9296063E-1,6.267266E-2,-1.0727956E0,9.159523E-3,1.1056621E0,-2.4761483E-1,-1.128247E0,-4.3714154E-1,-5.27868E-1,1.0876144E0,-3.457966E-2,-5.9015393E-2,1.1440694E0,-9.22438E-3,3.441636E-2,-4.6723247E-2,-1.1537114E0,-3.497136E-2,3.9835128E-1,-8.140794E-1,1.9382088E-2,-1.031372E0,6.4739995E-2,4.144073E-2,1.169317E0,2.4948947E-2,-4.4141848E-2,-5.8375057E-2,4.9807202E-2,-1.245485E-2,-1.1288638E-2,-9.97634E-1,-6.001869E-2,-3.839936E-2,4.5613844E-2,5.884835E-2,-2.818372E-2,-5.8220055E-2],"categories":[],"categories_nodes":[],"categories_segments":[],"categories_sizes":[],"default_left":[0,0,0,0,0,0,0,0,0,0,0,0,0,0,0,0,0,0,0,0,0,0,0,0,0,0,0,0,0,0,0,0,0,0,0,0,0,0,0,0,0,0,0],"id":26,"left_children":[1,3,5,7,9,11,13,15,-1,17,19,21,23,25,27,-1,-1,29,-1,-1,-1,31,-1,33,35,-1,37,-1,-1,39,-1,-1,-1,-1,-1,-1,41,-1,-1,-1,-1,-1,-1],"loss_changes":[1.0849674E3,3.0514148E2,1.0693652E2,2.606681E1,1.105517E2,5.0726562E1,6.870611E1,2.6595764E0,0E0,3.503784E1,4.3507027E1,5.168213E0,4.2831028E1,3.363053E1,1.150711E0,0E0,0E0,1.0534973E1,0E0,0E0,0E0,8.9294434E-1,0E0,1.6749052E1,9.854099E0,0E0,1.1605835E0,0E0,0E0,2.166748E-1,0E0,0E0,0E0,0E0,0E0,0E0,4.471054E0,0E0,0E0,0E0,0E0,0E0,0E0],"parents":[2147483647,0,0,1,1,2,2,3,3,4,4,5,5,6,6,7,7,9,9,10,10,11,11,12,12,13,13,14,14,17,17,21,21,23,23,24,24,26,26,29,29,36,36],"right_children":[2,4,6,8,10,12,14,16,-1,18,20,22,24,26,28,-1,-1,30,-1,-1,-1,32,-1,34,36,-1,38,-1,-1,40,-1,-1,-1,-1,-1,-1,42,-1,-1,-1,-1,-1,-1],"split_conditions":[-5.2328143E-2,7.409516E-2,-2.3784012E-2,4.506493E-2,-5.704743E-2,-7.107611E-2,1.03462465E-1,-4.8443332E-2,9.159523E-3,9.909711E-2,-5.8729302E-2,-4.5642883E-2,-6.392688E-2,-3.1880703E-2,-2.1961445E-2,-3.457966E-2,-5.9015393E-2,5.5394083E-2,-9.22438E-3,3.441636E-2,-4.6723247E-2,2.6143571E-2,-3.497136E-2,-4.548733E-2,4.0824775E-2,1.9382088E-2,-2.034541E-2,6.4739995E-2,4.144073E-2,4.1717414E-2,2.4948947E-2,-4.4141848E-2,-5.8375057E-2,4.9807202E-2,-1.245485E-2,-1.1288638E-2,5.127832E-2,-6.001869E-2,-3.839936E-2,4.5613844E-2,5.884835E-2,-2.818372E-2,-5.8220055E-2],"split_indices":[18,12,327,249,356,227,12,36,0,283,291,19,291,40,215,0,0,177,0,0,0,41,0,239,365,0,163,0,0,44,0,0,0,0,0,0,283,0,0,0,0,0,0],"split_type":[0,0,0,0,0,0,0,0,0,0,0,0,0,0,0,0,0,0,0,0,0,0,0,0,0,0,0,0,0,0,0,0,0,0,0,0,0,0,0,0,0,0,0],"sum_hessian":[1.6632526E3,8.715257E2,7.917269E2,1.0400395E2,7.675217E2,6.8016223E2,1.1156466E2,8.381056E1,2.019339E1,7.018441E2,6.567759E1,5.4618976E2,1.339725E2,7.108982E1,4.047484E1,2.007257E1,6.3737988E1,6.816644E2,2.017971E1,2.7797266E1,3.7880325E1,5.13978E2,3.2211708E1,4.1633636E1,9.233887E1,2.530622E1,4.5783604E1,2.0255758E1,2.021908E1,6.552083E2,2.6456131E1,2.8047853E1,4.8593018E2,2.1366892E1,2.0266745E1,2.248921E1,6.9849655E1,2.5721695E1,2.0061907E1,2.2412188E1,6.327961E2,2.0606817E1,4.924284E1],"tree_param":{"num_deleted":"0","num_feature":"384","num_nodes":"43","size_leaf_vector":"1"}},{"base_weights":[-2.1606686E-3,-7.633274E-1,8.3401465E-1,6.948123E-1,-9.015518E-1,1.0417084E0,-7.6921064E-1,5.3723574E-2,-1.537191E-2,-1.0309371E0,-9.02185E-2,1.1349488E0,-7.597299E-2,2.3994004E-2,-1.1395814E0,-1.112682E0,-5.1550245E-1,6.484094E-1,-8.3402276E-1,2.4286773E-2,1.1564189E0,-3.9263446E-2,4.553385E-2,-6.103595E-2,-4.4912532E-2,-1.1382755E0,-3.4417365E-2,-8.9478785E-1,3.2357775E-2,-6.6985353E-3,5.8533978E-2,-5.6878168E-2,-1.9786999E-2,5.827945E-2,4.2347144E-2,-3.94536E-2,-5.7763923E-2,-1.3494129E-2,-5.6966837E-2],"categories":[],"categories_nodes":[],"categories_segments":[],"categories_sizes":[],"default_left":[0,0,0,0,0,0,0,0,0,0,0,0,0,0,0,0,0,0,0,0,0,0,0,0,0,0,0,0,0,0,0,0,0,0,0,0,0,0,0],"id":27,"left_children":[1,3,5,7,9,11,13,-1,-1,15,17,19,21,-1,23,25,27,29,31,-1,33,-1,-1,-1,-1,35,-1,37,-1,-1,-1,-1,-1,-1,-1,-1,-1,-1,-1],"loss_changes":[1.0289369E3,1.7119305E2,2.5731586E2,2.8427822E1,8.109766E1,7.120471E1,4.1687172E1,0E0,0E0,2.7528076E1,5.9585735E1,8.218994E0,3.8144894E1,0E0,2.5234222E-1,5.4589844E0,4.166063E1,2.242082E1,6.731949E0,0E0,7.411499E-1,0E0,0E0,0E0,0E0,2.2979736E0,0E0,1.04914055E1,0E0,0E0,0E0,0E0,0E0,0E0,0E0,0E0,0E0,0E0,0E0],"parents":[2147483647,0,0,1,1,2,2,3,3,4,4,5,5,6,6,9,9,10,10,11,11,12,12,14,14,15,15,16,16,17,17,18,18,20,20,25,25,27,27],"right_children":[2,4,6,8,10,12,14,-1,-1,16,18,20,22,-1,24,26,28,30,32,-1,34,-1,-1,-1,-1,36,-1,38,-1,-1,-1,-1,-1,-1,-1,-1,-1,-1,-1],"split_conditions":[3.236936E-2,-7.3386915E-2,6.1196197E-2,-6.8675786E-2,-3.5274588E-2,-4.434518E-2,-7.5503305E-2,5.3723574E-2,-1.537191E-2,3.0206382E-2,-5.49272E-2,2.1845147E-2,-6.327328E-2,2.3994004E-2,-4.6437807E-2,-1.5472905E-2,6.159506E-2,8.00774E-2,-6.0808644E-2,2.4286773E-2,1.3134858E-2,-3.9263446E-2,4.553385E-2,-6.103595E-2,-4.4912532E-2,3.1584468E-2,-3.4417365E-2,-5.7641384E-3,3.2357775E-2,-6.6985353E-3,5.8533978E-2,-5.6878168E-2,-1.9786999E-2,5.827945E-2,4.2347144E-2,-3.94536E-2,-5.7763923E-2,-1.3494129E-2,-5.6966837E-2],"split_indices":[137,18,54,356,117,18,356,0,0,382,291,145,68,0,378,274,284,135,161,0,296,0,0,0,0,365,0,296,0,0,0,0,0,0,0,0,0,0,0],"split_type":[0,0,0,0,0,0,0,0,0,0,0,0,0,0,0,0,0,0,0,0,0,0,0,0,0,0,0,0,0,0,0,0,0,0,0,0,0,0,0],"sum_hessian":[1.6146333E3,8.452726E2,7.693608E2,7.2840965E1,7.724316E2,6.814331E2,8.792765E1,5.277673E1,2.0064236E1,6.6595886E2,1.0647274E2,6.289488E2,5.248432E1,2.0041428E1,6.7886215E1,5.73799E2,9.215987E1,5.348661E1,5.298613E1,2.0890383E1,6.080584E2,3.065253E1,2.1831789E1,4.776793E1,2.011829E1,5.395724E2,3.422658E1,6.9664215E1,2.2495651E1,2.1709082E1,3.1777529E1,3.0362524E1,2.2623608E1,5.8787305E2,2.0185392E1,2.725339E1,5.1231903E2,2.0185923E1,4.947829E1],"tree_param":{"num_deleted":"0","num_feature":"384","num_nodes":"39","size_leaf_vector":"1"}},{"base_weights":[-1.2245494E-2,7.8769594E-1,-7.790793E-1,-4.1828883E-1,1.0517298E0,-9.5155716E-1,1.5724729E-1,-9.8706186E-1,4.4551823E-1,-3.591984E-2,1.1127958E0,-1.053127E0,-8.8592604E-2,-3.9985877E-1,1.1402152E0,-1.2148153E0,-1.3138467E-2,-2.1926688E-2,5.073722E-2,1.1410811E0,1.4903522E-2,-6.489792E-1,-1.1119014E0,2.6196469E-2,-3.6897335E-2,1.7673595E-2,-9.364162E-1,6.402909E-2,4.6249177E-2,-4.9398113E-2,-6.586929E-2,5.749283E-2,4.262985E-2,5.098206E-3,-9.733257E-1,-3.080294E-2,-1.1349682E0,-3.0997917E-2,-5.782755E-2,-5.7075746E-2,-3.2534096E-2,-5.740282E-2,-3.9283123E-2],"categories":[],"categories_nodes":[],"categories_segments":[],"categories_sizes":[],"default_left":[0,0,0,0,0,0,0,0,0,0,0,0,0,0,0,0,0,0,0,0,0,0,0,0,0,0,0,0,0,0,0,0,0,0,0,0,0,0,0,0,0,0,0],"id":28,"left_children":[1,3,5,7,9,11,13,15,17,-1,19,21,23,25,27,29,-1,-1,-1,31,-1,33,35,-1,-1,-1,37,-1,-1,-1,-1,-1,-1,-1,39,-1,41,-1,-1,-1,-1,-1,-1],"loss_changes":[9.506746E2,2.4197086E2,1.27934784E2,6.77279E1,6.809601E1,5.8485657E1,6.832823E1,1.3354668E1,2.8154844E1,0E0,1.3537415E1,1.347937E1,2.8812948E1,3.2605587E1,1.7784119E-1,1.5940857E-1,0E0,0E0,0E0,4.9212646E-1,0E0,1.9172226E1,5.2545776E0,0E0,0E0,0E0,2.550682E0,0E0,0E0,0E0,0E0,0E0,0E0,0E0,2.2299805E0,0E0,1.3666382E0,0E0,0E0,0E0,0E0,0E0,0E0],"parents":[2147483647,0,0,1,1,2,2,3,3,4,4,5,5,6,6,7,7,8,8,10,10,11,11,12,12,13,13,14,14,15,15,19,19,21,21,22,22,26,26,34,34,36,36],"right_children":[2,4,6,8,10,12,14,16,18,-1,20,22,24,26,28,30,-1,-1,-1,32,-1,34,36,-1,-1,-1,38,-1,-1,-1,-1,-1,-1,-1,40,-1,42,-1,-1,-1,-1,-1,-1],"split_conditions":[-5.522629E-2,-1.867603E-2,-2.4203027E-2,-2.7411107E-2,6.560055E-2,5.3092036E-2,1.1023737E-1,5.3219333E-2,2.5118824E-2,-3.591984E-2,-5.380339E-2,-5.3994123E-2,-5.281721E-2,6.81825E-2,-1.783551E-2,-5.518097E-2,-1.3138467E-2,-2.1926688E-2,5.073722E-2,-3.5261802E-2,1.4903522E-2,-5.668323E-2,-8.0096684E-2,2.6196469E-2,-3.6897335E-2,1.7673595E-2,-5.4764777E-2,6.402909E-2,4.6249177E-2,-4.9398113E-2,-6.586929E-2,5.749283E-2,4.262985E-2,5.098206E-3,3.633049E-2,-3.080294E-2,5.0528318E-2,-3.0997917E-2,-5.782755E-2,-5.7075746E-2,-3.2534096E-2,-5.740282E-2,-3.9283123E-2],"split_indices":[18,361,327,231,12,249,12,159,137,0,356,218,36,283,215,157,0,0,0,291,0,109,291,0,0,0,356,0,0,0,0,0,0,0,134,0,35,0,0,0,0,0,0],"split_type":[0,0,0,0,0,0,0,0,0,0,0,0,0,0,0,0,0,0,0,0,0,0,0,0,0,0,0,0,0,0,0,0,0,0,0,0,0,0,0,0,0,0,0],"sum_hessian":[1.5477882E3,7.575276E2,7.902606E2,1.3595656E2,6.2157104E2,6.6731946E2,1.22941124E2,8.18921E1,5.406447E1,2.0368979E1,6.01202E2,5.968505E2,7.046895E1,7.884705E1,4.4094078E1,6.178621E1,2.0105885E1,2.126613E1,3.2798336E1,5.80643E2,2.055906E1,7.730728E1,5.195433E2,3.636231E1,3.4106644E1,3.294011E1,4.590694E1,2.3692715E1,2.0401361E1,2.2548395E1,3.9237816E1,5.6060394E2,2.0039015E1,2.35255E1,5.3781784E1,2.4326586E1,4.9521667E2,2.0398733E1,2.5508207E1,3.3684547E1,2.0097235E1,4.751272E2,2.0089466E1],"tree_param":{"num_deleted":"0","num_feature":"384","num_nodes":"43","size_leaf_vector":"1"}},{"base_weights":[1.0584287E-3,-7.3186094E-1,8.2213724E-1,-1.2990485E-1,-1.066466E0,-5.9833735E-1,1.0799912E0,-6.3942385E-1,8.062227E-1,-1.1002047E0,-1.2744255E-2,2.6027858E-2,-9.9781066E-1,-9.080625E-3,1.1240339E0,1.1952182E-2,-8.5093546E-1,1.1169548E0,-1.1543809E-2,-2.8006328E-2,-1.122255E0,-5.718405E-2,-2.6423348E-2,1.1444821E0,2.6920289E-2,-4.3103895E-3,-1.0243565E0,6.1508596E-2,3.7770733E-2,-5.7055045E-2,-3.382904E-2,4.385064E-2,5.764326E-2,-2.3357173E-2,-5.6573328E-2],"categories":[],"categories_nodes":[],"categories_segments":[],"categories_sizes":[],"default_left":[0,0,0,0,0,0,0,0,0,0,0,0,0,0,0,0,0,0,0,0,0,0,0,0,0,0,0,0,0,0,0,0,0,0,0],"id":29,"left_children":[1,3,5,7,9,11,13,15,17,19,-1,-1,21,-1,23,-1,25,27,-1,-1,29,-1,-1,31,-1,-1,33,-1,-1,-1,-1,-1,-1,-1,-1],"loss_changes":[9.0421655E2,1.5976697E2,2.6020996E2,1.3634622E2,1.3687744E1,4.9471348E1,3.3550415E1,3.4570824E1,3.2745422E1,5.2003174E0,0E0,0E0,4.9444656E0,0E0,6.329773E0,0E0,1.9710617E1,2.2528687E0,0E0,0E0,3.1693726E0,0E0,0E0,2.4359131E-1,0E0,0E0,6.7290115E0,0E0,0E0,0E0,0E0,0E0,0E0,0E0,0E0],"parents":[2147483647,0,0,1,1,2,2,3,3,4,4,5,5,6,6,7,7,8,8,9,9,12,12,14,14,16,16,17,17,20,20,23,23,26,26],"right_children":[2,4,6,8,10,12,14,16,18,20,-1,-1,22,-1,24,-1,26,28,-1,-1,30,-1,-1,32,-1,-1,34,-1,-1,-1,-1,-1,-1,-1,-1],"split_conditions":[1.0210941E-1,4.579908E-2,1.6651882E-2,2.4401575E-2,7.586146E-2,-5.8336634E-2,3.7757874E-2,3.9692886E-2,3.489611E-2,3.3112126E-3,-1.2744255E-2,2.6027858E-2,3.20289E-2,-9.080625E-3,1.4328933E-2,1.1952182E-2,2.5984902E-2,-4.60853E-3,-1.1543809E-2,-2.8006328E-2,4.8909385E-2,-5.718405E-2,-2.6423348E-2,-4.4337977E-2,2.6920289E-2,-4.3103895E-3,-1.7941885E-2,6.1508596E-2,3.7770733E-2,-5.7055045E-2,-3.382904E-2,4.385064E-2,5.764326E-2,-2.3357173E-2,-5.6573328E-2],"split_indices":[12,41,137,137,44,291,44,283,106,132,0,0,35,0,296,0,177,296,0,0,137,0,0,327,0,0,296,0,0,0,0,0,0,0,0],"split_type":[0,0,0,0,0,0,0,0,0,0,0,0,0,0,0,0,0,0,0,0,0,0,0,0,0,0,0,0,0,0,0,0,0,0,0],"sum_hessian":[1.5005587E3,7.929007E2,7.076581E2,2.8377548E2,5.091252E2,1.0851986E2,5.9913824E2,1.8396387E2,9.98116E1,4.8846338E2,2.066184E1,2.8471165E1,8.004869E1,2.0105032E1,5.790332E2,3.5673126E1,1.4829074E2,7.674155E1,2.3070047E1,2.0196323E1,4.6826703E2,5.9972633E1,2.0076061E1,5.5857526E2,2.0457907E1,2.7688969E1,1.20601776E2,5.6611065E1,2.0130484E1,4.47772E2,2.049503E1,2.0184505E1,5.3839075E2,2.0309258E1,1.0029252E2],"tree_param":{"num_deleted":"0","num_feature":"384","num_nodes":"35","size_leaf_vector":"1"}},{"base_weights":[1.3292313E-2,-6.5355647E-1,8.7296337E-1,-9.990952E-1,1.4200957E-2,-7.7293575E-1,1.0487972E0,-3.3366057E-1,-1.0785658E0,8.16422E-1,-5.8700275E-1,-5.732099E-2,2.5037906E-4,1.6823538E-1,1.1180487E0,2.3367316E-2,-4.215048E-2,-6.901588E-1,-1.116232E0,1.0502659E0,-1.2100371E-2,1.3287686E-2,-8.6163753E-1,-3.218857E-2,4.5155045E-2,5.6834426E-2,3.0471832E-2,-8.908977E-3,-5.4408874E-2,-3.7791964E-2,-1.1336569E0,2.74833E-2,5.887391E-2,-7.519477E-3,-1.0372382E0,-4.496277E-2,-5.7238854E-2,-2.500577E-2,-5.853312E-2],"categories":[],"categories_nodes":[],"categories_segments":[],"categories_sizes":[],"default_left":[0,0,0,0,0,0,0,0,0,0,0,0,0,0,0,0,0,0,0,0,0,0,0,0,0,0,0,0,0,0,0,0,0,0,0,0,0,0,0],"id":30,"left_children":[1,3,5,7,9,11,13,15,17,19,21,-1,-1,23,25,-1,-1,27,29,31,-1,-1,33,-1,-1,-1,-1,-1,-1,-1,35,-1,-1,-1,37,-1,-1,-1,-1],"loss_changes":[8.380503E2,1.8997403E2,1.8562534E2,2.8331482E1,1.3635591E2,1.8081898E1,3.502124E1,2.4600216E1,6.3137207E0,3.0228683E1,3.808028E1,0E0,0E0,2.6404182E1,4.38031E0,0E0,0E0,9.062981E0,1.9049072E0,5.681427E0,0E0,0E0,1.5141998E1,0E0,0E0,0E0,0E0,0E0,0E0,0E0,5.883789E-2,0E0,0E0,0E0,6.4422913E0,0E0,0E0,0E0,0E0],"parents":[2147483647,0,0,1,1,2,2,3,3,4,4,5,5,6,6,7,7,8,8,9,9,10,10,13,13,14,14,17,17,18,18,19,19,22,22,30,30,34,34],"right_children":[2,4,6,8,10,12,14,16,18,20,22,-1,-1,24,26,-1,-1,28,30,32,-1,-1,34,-1,-1,-1,-1,-1,-1,-1,36,-1,-1,-1,38,-1,-1,-1,-1],"split_conditions":[3.562437E-2,5.498945E-2,3.4008287E-2,-5.9626255E-2,-6.703599E-2,-5.038272E-2,-2.499423E-2,2.2130966E-2,-4.0877555E-2,4.61106E-2,-6.69871E-2,-5.732099E-2,2.5037906E-4,-3.6442988E-2,-5.677162E-2,2.3367316E-2,-4.215048E-2,8.113267E-2,5.2441753E-2,-2.5242845E-2,-1.2100371E-2,1.3287686E-2,-1.6431324E-2,-3.218857E-2,4.5155045E-2,5.6834426E-2,3.0471832E-2,-8.908977E-3,-5.4408874E-2,-3.7791964E-2,-4.261873E-2,2.74833E-2,5.887391E-2,-7.519477E-3,5.127832E-2,-4.496277E-2,-5.7238854E-2,-2.500577E-2,-5.853312E-2],"split_indices":[137,44,44,36,356,231,361,132,89,177,291,0,0,274,356,0,0,350,146,245,0,0,296,0,0,0,0,0,0,0,316,0,0,0,283,0,0,0,0],"split_type":[0,0,0,0,0,0,0,0,0,0,0,0,0,0,0,0,0,0,0,0,0,0,0,0,0,0,0,0,0,0,0,0,0,0,0,0,0,0,0],"sum_hessian":[1.4598804E3,8.222776E2,6.376028E2,5.415501E2,2.8072748E2,6.1213726E1,5.763891E2,5.8330173E1,4.832199E2,1.20105606E2,1.6062187E2,4.103805E1,2.0175676E1,4.227486E1,5.341142E2,2.27056E1,3.5624573E1,4.4426414E1,4.387935E2,9.837816E1,2.172745E1,3.9135693E1,1.21486176E2,2.0142214E1,2.2132648E1,5.140405E2,2.007365E1,2.0064594E1,2.436182E1,2.2283693E1,4.165098E2,2.1012323E1,7.736584E1,2.4422483E1,9.70637E1,2.257251E1,3.939373E2,2.0258362E1,7.6805336E1],"tree_param":{"num_deleted":"0","num_feature":"384","num_nodes":"39","size_leaf_vector":"1"}},{"base_weights":[-4.801442E-3,8.815535E-1,-6.594357E-1,-2.8920954E-1,1.0476354E0,-8.5543436E-1,4.4289336E-1,4.2054355E-2,-7.950747E-1,1.2675677E-2,1.1064569E0,-9.90331E-1,-8.307889E-2,-4.0452283E-2,1.0010908E0,-1.6024958E-2,-5.5684503E-2,5.60881E-2,3.6334407E-2,-1.089121E0,-6.031437E-1,3.0654043E-1,-4.7965072E-2,2.570731E-2,5.7154167E-2,-2.6234536E-2,-1.113569E0,-9.386821E-1,4.7549536E-3,-3.367042E-2,7.365445E-1,-3.7968885E-2,-5.6443542E-2,-5.7113994E-2,-1.5369259E-2,6.132723E-2,-1.812177E-4],"categories":[],"categories_nodes":[],"categories_segments":[],"categories_sizes":[],"default_left":[0,0,0,0,0,0,0,0,0,0,0,0,0,0,0,0,0,0,0,0,0,0,0,0,0,0,0,0,0,0,0,0,0,0,0,0,0],"id":31,"left_children":[1,3,5,7,9,11,13,-1,15,-1,17,19,21,-1,23,-1,-1,-1,-1,25,27,29,-1,-1,-1,-1,31,33,-1,-1,35,-1,-1,-1,-1,-1,-1],"loss_changes":[8.141522E2,1.162052E2,1.7474802E2,4.3458557E1,2.411383E1,7.134543E1,8.641258E1,0E0,7.537998E0,0E0,2.0092773E0,2.1663513E1,3.5466476E1,0E0,5.3009796E0,0E0,0E0,0E0,0E0,5.814087E0,2.8406017E1,3.0866283E1,0E0,0E0,0E0,0E0,1.5466309E0,1.01532135E1,0E0,0E0,1.8345318E1,0E0,0E0,0E0,0E0,0E0,0E0],"parents":[2147483647,0,0,1,1,2,2,3,3,4,4,5,5,6,6,8,8,10,10,11,11,12,12,14,14,19,19,20,20,21,21,26,26,27,27,30,30],"right_children":[2,4,6,8,10,12,14,-1,16,-1,18,20,22,-1,24,-1,-1,-1,-1,26,28,30,-1,-1,-1,-1,32,34,-1,-1,36,-1,-1,-1,-1,-1,-1],"split_conditions":[-6.0837936E-2,8.777314E-2,4.226748E-2,-7.686593E-2,-2.1534951E-2,4.955648E-2,2.760595E-2,4.2054355E-2,4.7839757E-2,1.2675677E-2,-2.6969574E-3,-7.399079E-2,-2.7428685E-2,-4.0452283E-2,4.6233308E-2,-1.6024958E-2,-5.5684503E-2,5.60881E-2,3.6334407E-2,-4.8160393E-2,8.615843E-2,1.963951E-2,-4.7965072E-2,2.570731E-2,5.7154167E-2,-2.6234536E-2,4.9000464E-2,5.916433E-2,4.7549536E-3,-3.367042E-2,-5.7010673E-2,-3.7968885E-2,-5.6443542E-2,-5.7113994E-2,-1.5369259E-2,6.132723E-2,-1.812177E-4],"split_indices":[18,12,137,356,361,249,35,0,41,0,215,227,103,0,371,0,0,0,0,89,135,302,0,0,0,0,146,25,0,0,291,0,0,0,0,0,0],"split_type":[0,0,0,0,0,0,0,0,0,0,0,0,0,0,0,0,0,0,0,0,0,0,0,0,0,0,0,0,0,0,0,0,0,0,0,0,0],"sum_hessian":[1.4011326E3,5.950739E2,8.0605865E2,7.383649E1,5.212374E2,6.845643E2,1.21494415E2,2.262373E1,5.1212757E1,3.6312225E1,4.849252E2,5.8253815E2,1.020261E2,3.732703E1,8.416739E1,2.1377306E1,2.9835451E1,4.6426105E2,2.0664152E1,4.6267477E2,1.1986339E2,7.107306E1,3.0953043E1,2.0045391E1,6.4121994E1,2.0140993E1,4.4253378E2,8.072628E1,3.9137108E1,2.1503056E1,4.957E1,2.0423275E1,4.221105E2,6.0428303E1,2.0297981E1,2.9429935E1,2.0140064E1],"tree_param":{"num_deleted":"0","num_feature":"384","num_nodes":"37","size_leaf_vector":"1"}},{"base_weights":[-2.5731398E-4,8.610363E-1,-6.3593614E-1,-3.3212432E-1,1.0365295E0,-8.3602124E-1,4.129821E-1,3.1589232E-2,-9.5380926E-1,-8.977064E-3,1.0906056E0,-1.0585856E0,-2.9918712E-1,8.822815E-1,-4.974797E-2,-2.5805918E-2,-6.6097304E-2,1.1178244E0,2.2228485E-2,-1.0881284E0,-2.2415098E-2,2.538331E-1,-8.0130607E-1,1.098958E0,5.0583775E-3,5.6496162E-2,4.1026074E-2,-3.7895013E-2,-5.571164E-2,-4.1963604E-1,9.584573E-1,-2.0039745E-2,-1.0386906E0,5.914339E-2,4.23219E-2,1.1921537E-2,-4.6920992E-2,2.4680503E-2,6.5614045E-2,-5.6838423E-2,-3.9449763E-2],"categories":[],"categories_nodes":[],"categories_segments":[],"categories_sizes":[],"default_left":[0,0,0,0,0,0,0,0,0,0,0,0,0,0,0,0,0,0,0,0,0,0,0,0,0,0,0,0,0,0,0,0,0,0,0,0,0,0,0,0,0],"id":32,"left_children":[1,3,5,7,9,11,13,-1,15,-1,17,19,21,23,-1,-1,-1,25,-1,27,-1,29,31,33,-1,-1,-1,-1,-1,35,37,-1,39,-1,-1,-1,-1,-1,-1,-1,-1],"loss_changes":[7.414327E2,1.2075513E2,1.6386731E2,4.5241932E1,3.3178467E1,7.7902466E1,8.379194E1,0E0,6.678711E0,0E0,7.949707E0,7.84906E0,5.386885E1,1.5907379E1,0E0,0E0,0E0,7.2839355E-1,0E0,2.951477E0,0E0,4.4406055E1,9.236992E0,5.6655884E-1,0E0,0E0,0E0,0E0,0E0,1.6647606E1,6.8556747E0,0E0,6.489029E-1,0E0,0E0,0E0,0E0,0E0,0E0,0E0,0E0],"parents":[2147483647,0,0,1,1,2,2,3,3,4,4,5,5,6,6,8,8,10,10,11,11,12,12,13,13,17,17,19,19,21,21,22,22,23,23,29,29,30,30,32,32],"right_children":[2,4,6,8,10,12,14,-1,16,-1,18,20,22,24,-1,-1,-1,26,-1,28,-1,30,32,34,-1,-1,-1,-1,-1,36,38,-1,40,-1,-1,-1,-1,-1,-1,-1,-1],"split_conditions":[-6.0837936E-2,-2.1150572E-2,4.084862E-2,-6.9234446E-2,-5.633518E-2,-5.19664E-2,6.0423393E-2,3.1589232E-2,4.1500118E-2,-8.977064E-3,9.0837575E-2,-1.0007616E-2,-5.3007558E-2,-6.2550925E-2,-4.974797E-2,-2.5805918E-2,-6.6097304E-2,5.3592913E-2,2.2228485E-2,2.7672406E-2,-2.2415098E-2,8.00774E-2,-5.1576428E-2,-5.7271156E-2,5.0583775E-3,5.6496162E-2,4.1026074E-2,-3.7895013E-2,-5.571164E-2,-6.42601E-2,3.412931E-2,-2.0039745E-2,5.2020576E-2,5.914339E-2,4.23219E-2,1.1921537E-2,-4.6920992E-2,2.4680503E-2,6.5614045E-2,-5.6838423E-2,-3.9449763E-2],"split_indices":[18,361,137,356,274,117,54,0,177,0,283,274,291,356,0,0,0,106,0,175,0,135,36,258,0,0,0,0,